{"learner":{"attributes":{"best_iteration":"498","best_ntree_limit":"499","best_score":"0.02579169520948199"},"feature_names":[],"feature_types":[],"gradient_booster":{"model":{"gbtree_model_param":{"num_parallel_tree":"1","num_trees":"500","size_leaf_vector":"0"},"tree_info":[0,0,0,0,0,0,0,0,0,0,0,0,0,0,0,0,0,0,0,0,0,0,0,0,0,0,0,0,0,0,0,0,0,0,0,0,0,0,0,0,0,0,0,0,0,0,0,0,0,0,0,0,0,0,0,0,0,0,0,0,0,0,0,0,0,0,0,0,0,0,0,0,0,0,0,0,0,0,0,0,0,0,0,0,0,0,0,0,0,0,0,0,0,0,0,0,0,0,0,0,0,0,0,0,0,0,0,0,0,0,0,0,0,0,0,0,0,0,0,0,0,0,0,0,0,0,0,0,0,0,0,0,0,0,0,0,0,0,0,0,0,0,0,0,0,0,0,0,0,0,0,0,0,0,0,0,0,0,0,0,0,0,0,0,0,0,0,0,0,0,0,0,0,0,0,0,0,0,0,0,0,0,0,0,0,0,0,0,0,0,0,0,0,0,0,0,0,0,0,0,0,0,0,0,0,0,0,0,0,0,0,0,0,0,0,0,0,0,0,0,0,0,0,0,0,0,0,0,0,0,0,0,0,0,0,0,0,0,0,0,0,0,0,0,0,0,0,0,0,0,0,0,0,0,0,0,0,0,0,0,0,0,0,0,0,0,0,0,0,0,0,0,0,0,0,0,0,0,0,0,0,0,0,0,0,0,0,0,0,0,0,0,0,0,0,0,0,0,0,0,0,0,0,0,0,0,0,0,0,0,0,0,0,0,0,0,0,0,0,0,0,0,0,0,0,0,0,0,0,0,0,0,0,0,0,0,0,0,0,0,0,0,0,0,0,0,0,0,0,0,0,0,0,0,0,0,0,0,0,0,0,0,0,0,0,0,0,0,0,0,0,0,0,0,0,0,0,0,0,0,0,0,0,0,0,0,0,0,0,0,0,0,0,0,0,0,0,0,0,0,0,0,0,0,0,0,0,0,0,0,0,0,0,0,0,0,0,0,0,0,0,0,0,0,0,0,0,0,0,0,0,0,0,0,0,0,0,0,0,0,0,0,0,0,0,0,0,0,0,0,0,0,0,0,0,0,0,0,0,0,0,0,0,0,0,0,0,0,0,0,0,0,0,0,0,0,0,0,0,0,0,0,0,0,0,0,0,0,0,0,0,0,0,0,0,0,0,0,0,0],"trees":[{"base_weights":[-1.4527364E0,1.1891892E0,-1.7111716E0,-8.888889E-1,1.7333333E0,1.2345679E-1,-1.9269407E0,5E-1,-1.4285715E0,6.666667E-1,1.8461539E0,1.8222222E0,-1.8E0,-1.04E0,-1.9869068E0,1E0,-0E0,-1.7837838E0,8.235294E-1,1.3333334E0,-2.2222222E-1],"categories":[],"categories_nodes":[],"categories_segments":[],"categories_sizes":[],"default_left":[1,1,1,1,1,1,1,0,0,1,0,0,0,1,0,0,0,0,1,0,0],"id":0,"left_children":[1,3,5,7,9,11,13,-1,-1,15,-1,-1,-1,17,-1,-1,-1,-1,19,-1,-1],"loss_changes":[1.3927109E2,2.246006E1,7.287744E1,4.0873013E0,5.743599E-1,6.9446915E1,6.6694946E0,0E0,0E0,6.666666E-1,0E0,0E0,0E0,1.8794785E1,0E0,0E0,0E0,0E0,2.5620918E0,0E0,0E0],"parents":[2147483647,0,0,1,1,2,2,3,3,4,4,5,5,6,6,9,9,13,13,18,18],"right_children":[2,4,6,8,10,12,14,-1,-1,16,-1,-1,-1,18,-1,-1,-1,-1,20,-1,-1],"split_conditions":[-1.4415648E0,-8.1600326E-1,-1.3589497E0,-1.7183175E0,-3.2971597E-1,7.5002015E-3,-1.197371E0,2.5E-2,-7.1428575E-2,-1.6890144E0,9.2307694E-2,9.1111116E-2,-8.9999996E-2,5.959331E-1,-9.934534E-2,5E-2,-0E0,-8.9189194E-2,-1.2433157E0,6.666667E-2,-1.1111111E-2],"split_indices":[0,1,3,0,1,4,0,0,0,0,0,0,0,1,0,0,0,0,0,0,0],"split_type":[0,0,0,0,0,0,0,0,0,0,0,0,0,0,0,0,0,0,0,0,0],"sum_hessian":[2E2,1.75E1,1.825E2,3.5E0,1.4E1,1.925E1,1.6325E2,1E0,2.5E0,2E0,1.2E1,1.025E1,9E0,1.15E1,1.5175E2,1E0,1E0,8.25E0,3.25E0,2E0,1.25E0],"tree_param":{"num_deleted":"0","num_feature":"7","num_nodes":"21","size_leaf_vector":"0"}},{"base_weights":[-1.3835142E0,1.1367636E0,-1.6302382E0,-8.554138E-1,1.6590993E0,1.175727E-1,-1.8358679E0,2.1909106E-1,-1.3363649E0,6.501389E-1,1.7644718E0,1.7425575E0,-1.7221891E0,-9.9220556E-1,-1.8929253E0,-1.7073135E0,7.958595E-1,1.2898601E0,-2.1605323E-1],"categories":[],"categories_nodes":[],"categories_segments":[],"categories_sizes":[],"default_left":[1,1,1,1,1,1,1,0,0,0,0,0,0,1,0,0,1,0,0],"id":1,"left_children":[1,3,5,7,9,11,13,-1,-1,-1,-1,-1,-1,15,-1,-1,17,-1,-1],"loss_changes":[1.2655069E2,2.0639359E1,6.6010864E1,2.6165874E0,4.4481277E-1,6.342219E1,6.0094604E0,0E0,0E0,0E0,0E0,0E0,0E0,1.7318188E1,0E0,0E0,2.4020627E0,0E0,0E0],"parents":[2147483647,0,0,1,1,2,2,3,3,4,4,5,5,6,6,13,13,16,16],"right_children":[2,4,6,8,10,12,14,-1,-1,-1,-1,-1,-1,16,-1,-1,18,-1,-1],"split_conditions":[-1.4415648E0,-8.1600326E-1,-1.3589497E0,-1.7031233E0,-3.2971597E-1,7.5002015E-3,-1.197371E0,1.0954553E-2,-6.6818245E-2,3.2506946E-2,8.822359E-2,8.712788E-2,-8.610945E-2,5.959331E-1,-9.464627E-2,-8.5365675E-2,-1.2433157E0,6.449301E-2,-1.0802662E-2],"split_indices":[0,1,3,0,1,4,0,0,0,0,0,0,0,1,0,0,0,0,0],"split_type":[0,0,0,0,0,0,0,0,0,0,0,0,0,0,0,0,0,0,0],"sum_hessian":[1.995386E2,1.7470507E1,1.820681E2,3.4966578E0,1.3973849E1,1.9210556E1,1.6285754E2,1.2495252E0,2.2471328E0,1.9993753E0,1.1974474E1,1.0228757E1,8.9818E0,1.1481356E1,1.5137619E2,8.233615E0,3.2477407E0,1.9977795E0,1.2499614E0],"tree_param":{"num_deleted":"0","num_feature":"7","num_nodes":"19","size_leaf_vector":"0"}},{"base_weights":[-1.3233628E0,1.0883505E0,-1.5599569E0,-8.2657546E-1,1.5921655E0,-6.605234E-1,-1.608065E0,2.1301365E-1,-1.2933227E0,6.287569E-1,1.6926222E0,-1.313253E0,1.2945459E0,-1.6171155E0,-2.0017341E-1,-2.0456468E-1,-1.4703708E0],"categories":[],"categories_nodes":[],"categories_segments":[],"categories_sizes":[],"default_left":[1,1,1,1,1,1,1,0,0,0,0,1,0,0,0,0,0],"id":2,"left_children":[1,3,5,7,9,11,13,-1,-1,-1,-1,15,-1,-1,-1,-1,-1],"loss_changes":[1.1538873E2,1.905767E1,6.806946E0,2.4535422E0,3.7786484E-1,1.5648657E1,1.8670349E0,0E0,0E0,0E0,0E0,1.2131252E0,0E0,0E0,0E0,0E0,0E0],"parents":[2147483647,0,0,1,1,2,2,3,3,4,4,5,5,6,6,11,11],"right_children":[2,4,6,8,10,12,14,-1,-1,-1,-1,16,-1,-1,-1,-1,-1],"split_conditions":[-1.4415648E0,-8.1600326E-1,-1.249104E0,-1.7031233E0,-3.2971597E-1,5.479648E-1,1.698225E0,1.0650682E-2,-6.466614E-2,3.1437844E-2,8.463111E-2,-1.1531718E0,6.47273E-2,-8.085578E-2,-1.000867E-2,-1.0228234E-2,-7.351854E-2],"split_indices":[0,1,0,0,1,1,2,0,0,0,0,1,0,0,0,0,0],"split_type":[0,0,0,0,0,0,0,0,0,0,0,0,0,0,0,0,0],"sum_hessian":[1.982491E2,1.7389523E1,1.8085957E2,3.488732E0,1.390079E1,9.930369E0,1.709292E2,1.2494484E0,2.2392836E0,1.9980359E0,1.1902754E1,7.6909213E0,2.239448E0,1.6968976E2,1.2394466E0,1.2403656E0,6.450556E0],"tree_param":{"num_deleted":"0","num_feature":"7","num_nodes":"17","size_leaf_vector":"0"}},{"base_weights":[-1.2680873E0,3.2745486E-1,-1.4601185E0,1.7304666E0,-1.1505494E0,-1.163765E0,-1.5230013E0,-1.2647733E-1,-1.3854611E0,-3.4524345E-1,-1.255754E0,-1.5331604E0,-3.329145E-1,-8.7340885E-1,2.9855034E-1,-1.2929082E0,-1.9169277E-1,-1.3261784E0,-5.4343545E-1],"categories":[],"categories_nodes":[],"categories_segments":[],"categories_sizes":[],"default_left":[1,1,1,0,1,1,1,0,0,1,1,0,0,0,0,1,0,0,0],"id":3,"left_children":[1,3,5,-1,7,9,11,-1,-1,13,15,-1,-1,-1,-1,17,-1,-1,-1],"loss_changes":[6.102661E1,4.7706627E1,1.5180969E0,0E0,2.5519943E0,2.2128906E0,1.2115173E0,0E0,0E0,1.9371467E0,9.8631287E-1,0E0,0E0,0E0,0E0,2.7111053E-2,0E0,0E0,0E0],"parents":[2147483647,0,0,1,1,2,2,4,4,5,5,6,6,9,9,10,10,15,15],"right_children":[2,4,6,-1,8,10,12,-1,-1,14,16,-1,-1,-1,-1,18,-1,-1,-1],"split_conditions":[-1.3589497E0,7.5002015E-3,-1.0432501E0,8.652333E-2,-8.533795E-1,-1.4006884E0,1.6913369E0,-6.3238665E-3,-6.9273055E-2,-1.5520343E0,-1.0570264E0,-7.6658025E-2,-1.6645726E-2,-4.3670442E-2,1.4927517E-2,1.4940873E0,-9.584638E-3,-6.630892E-2,-2.7171774E-2],"split_indices":[3,4,2,0,6,6,2,0,0,6,2,0,0,0,0,3,0,0,0],"split_type":[0,0,0,0,0,0,0,0,0,0,0,0,0,0,0,0,0,0,0],"sum_hessian":[1.9661641E2,2.1045898E1,1.7557051E2,1.070923E1,1.0336668E1,3.4147476E1,1.4142303E2,2.21575E0,8.120917E0,3.93013E0,3.0217344E1,1.3994016E2,1.4828706E0,1.963019E0,1.967111E0,2.8990019E1,1.2273256E0,2.7021036E1,1.968983E0],"tree_param":{"num_deleted":"0","num_feature":"7","num_nodes":"19","size_leaf_vector":"0"}},{"base_weights":[-1.2174683E0,1.0962843E0,-1.4481115E0,1.2515703E0,1.4787082E-1,-7.2182435E-1,-1.5053856E0,-3.3654618E-1,6.1774534E-1,2.6200882E-1,-9.8639387E-1,-1.3185807E0,-1.6867777E0,8.518461E-1,-5.787154E-1,-3.7832403E-1,-1.3526543E0,-1.3327159E0,-1.916237E-1,-6.7677355E-1,2.2101295E-1,-1.3514867E0,-6.043203E-1,-1.0232358E0,-1.15230225E-1,-1.0945714E-1,-9.381302E-1],"categories":[],"categories_nodes":[],"categories_segments":[],"categories_sizes":[],"default_left":[1,1,1,0,1,1,1,0,0,1,1,1,0,0,0,1,0,1,0,1,0,0,1,0,0,0,0],"id":4,"left_children":[1,3,5,-1,7,9,11,-1,-1,13,15,17,-1,-1,-1,19,-1,21,-1,23,-1,-1,25,-1,-1,-1,-1],"loss_changes":[1.0605881E2,2.512268E0,6.3365173E0,0E0,1.0525372E0,4.153738E0,3.3494873E0,0E0,0E0,2.4575062E0,2.1615715E0,1.1084595E0,0E0,0E0,0E0,1.2050107E0,0E0,3.370514E-1,0E0,6.963358E-1,0E0,0E0,5.463214E-1,0E0,0E0,0E0,0E0],"parents":[2147483647,0,0,1,1,2,2,4,4,5,5,6,6,9,9,10,10,11,11,15,15,17,17,19,19,22,22],"right_children":[2,4,6,-1,8,10,12,-1,-1,14,16,18,-1,-1,-1,20,-1,22,-1,24,-1,-1,26,-1,-1,-1,-1],"split_conditions":[-1.4415648E0,-1.4860623E0,-1.1807299E0,6.257852E-2,-1.464718E0,-1.2257855E0,7.5002015E-3,-1.682731E-2,3.0887267E-2,-1.291069E0,1.1165957E-1,1.6913369E0,-8.433889E-2,4.2592306E-2,-2.893577E-2,4.8247033E-1,-6.763272E-2,1.6653023E0,-9.581185E-3,-1.3102429E0,1.1050648E-2,-6.757434E-2,1.96468E-1,-5.1161792E-2,-5.761511E-3,-5.472857E-3,-4.6906512E-2],"split_indices":[0,0,0,0,0,2,4,0,0,0,5,2,0,0,0,2,0,0,0,0,0,0,5,0,0,0,0],"split_type":[0,0,0,0,0,0,0,0,0,0,0,0,0,0,0,0,0,0,0,0,0,0,0,0,0,0,0],"sum_hessian":[1.9476678E2,1.7314919E1,1.7745186E2,1.4604106E1,2.7108123E0,1.3965077E1,1.6348679E2,1.4744655E0,1.2363468E0,2.9616206E0,1.1003457E1,8.461552E1,7.887127E1,1.732735E0,1.2288854E0,4.9005103E0,6.1029463E0,8.338703E1,1.2284838E0,3.18519E0,1.7153203E0,8.045819E1,2.9288425E0,1.4613675E0,1.7238226E0,1.7147218E0,1.2141206E0],"tree_param":{"num_deleted":"0","num_feature":"7","num_nodes":"27","size_leaf_vector":"0"}},{"base_weights":[-1.1721284E0,1.0502646E0,-1.395484E0,1.1988822E0,1.444108E-1,2.2917995E-1,-1.5914551E0,7.6494396E-1,1.3556198E0,6.0990894E-1,-3.3416715E-1,1.6997654E0,-1.4990885E0,-8.290668E-1,-1.6442249E0,1.166594E0,-9.16782E-2,7.040965E-2,-1.1235251E0,-3.1763572E-1,4.2884815E-1,-3.017651E-1,-1.2398156E0],"categories":[],"categories_nodes":[],"categories_segments":[],"categories_sizes":[],"default_left":[1,1,1,1,1,1,1,1,0,0,0,0,0,1,0,0,0,1,1,0,0,0,0],"id":5,"left_children":[1,3,5,7,9,11,13,15,-1,-1,-1,-1,-1,17,-1,-1,-1,19,21,-1,-1,-1,-1],"loss_changes":[9.7487976E1,2.28199E0,5.6466797E1,1.9248962E-2,1.0296975E0,5.2974945E1,4.967865E0,2.3143878E0,0E0,0E0,0E0,0E0,0E0,3.31151E0,0E0,0E0,0E0,6.857563E-1,5.101404E-1,0E0,0E0,0E0,0E0],"parents":[2147483647,0,0,1,1,2,2,3,3,4,4,5,5,6,6,7,7,13,13,17,17,18,18],"right_children":[2,4,6,8,10,12,14,16,-1,-1,-1,-1,-1,18,-1,-1,-1,20,22,-1,-1,-1,-1],"split_conditions":[-1.4415648E0,-1.4860623E0,-1.3589497E0,-7.298403E-1,3.8457292E-1,7.5002015E-3,-1.197371E0,-1.1879008E0,6.7780994E-2,3.0495448E-2,-1.6708357E-2,8.498827E-2,-7.495443E-2,-1.032918E0,-8.221125E-2,5.83297E-2,-4.58391E-3,3.4935027E-1,-8.717026E-1,-1.5881786E-2,2.1442408E-2,-1.50882555E-2,-6.199078E-2],"split_indices":[0,0,3,2,3,4,0,2,0,0,0,0,0,2,0,0,0,3,3,0,0,0,0],"split_type":[0,0,0,0,0,0,0,0,0,0,0,0,0,0,0,0,0,0,0,0,0,0,0],"sum_hessian":[1.9244371E2,1.7236633E1,1.7520708E2,1.4529405E1,2.7072294E0,1.8840853E1,1.5636623E2,5.4158044E0,9.113601E0,1.2332579E0,1.4739716E0,1.0188197E1,8.652656E0,1.1204272E1,1.4516196E2,3.440691E0,1.9751132E0,2.950948E0,8.253324E0,1.4716141E0,1.479334E0,1.4688319E0,6.784492E0],"tree_param":{"num_deleted":"0","num_feature":"7","num_nodes":"23","size_leaf_vector":"0"}},{"base_weights":[-1.1322025E0,1.0108144E0,-1.3500632E0,-7.9621494E-1,1.4916565E0,-6.724757E-1,-1.4043018E0,1.8409306E-1,-1.2338805E0,5.74625E-1,1.5900679E0,-1.109676E0,9.3173116E-1,-1.4125946E0,-1.7561907E-1,-2.8338405E-1,-1.2414091E0,1.1388676E0,2.8144968E-1,-1.3590099E0,-4.1006222E-1],"categories":[],"categories_nodes":[],"categories_segments":[],"categories_sizes":[],"default_left":[1,1,1,1,1,1,1,0,0,0,0,1,1,0,0,0,1,0,0,0,0],"id":6,"left_children":[1,3,5,7,9,11,13,-1,-1,-1,-1,15,17,-1,-1,-1,19,-1,-1,-1,-1],"loss_changes":[9.023784E1,1.6947535E1,5.421631E0,2.142418E0,4.1056442E-1,1.1383719E1,1.3767395E0,0E0,0E0,0E0,0E0,9.6014977E-1,1.7838144E-1,0E0,0E0,0E0,4.3013382E-1,0E0,0E0,0E0,0E0],"parents":[2147483647,0,0,1,1,2,2,3,3,4,4,5,5,6,6,11,11,12,12,16,16],"right_children":[2,4,6,8,10,12,14,-1,-1,-1,-1,16,18,-1,-1,-1,20,-1,-1,-1,-1],"split_conditions":[-1.4415648E0,-8.1600326E-1,-1.1807299E0,-1.7031233E0,-3.2971597E-1,9.1885006E-1,1.698225E0,9.204653E-3,-6.1694026E-2,2.8731251E-2,7.9503395E-2,-1.2257855E0,5.0686E-1,-7.062973E-2,-8.7809535E-3,-1.4169203E-2,1.0369647E0,5.6943383E-2,1.4072484E-2,-6.7950495E-2,-2.0503111E-2],"split_indices":[0,1,0,0,1,1,2,0,0,0,0,2,5,0,0,0,2,0,0,0,0],"split_type":[0,0,0,0,0,0,0,0,0,0,0,0,0,0,0,0,0,0,0,0,0],"sum_hessian":[1.8935574E2,1.7137793E1,1.7221794E2,3.464006E0,1.3673787E1,1.3756763E1,1.5846118E2,1.2480123E0,2.2159934E0,1.9879915E0,1.1685795E1,1.105278E1,2.7039828E0,1.5725015E2,1.211027E0,1.9531151E0,9.099665E0,1.480916E0,1.2230669E0,7.4159145E0,1.6837505E0],"tree_param":{"num_deleted":"0","num_feature":"7","num_nodes":"21","size_leaf_vector":"0"}},{"base_weights":[-1.0935665E0,9.7374445E-1,-1.304909E0,-7.714862E-1,1.4414992E0,-5.2044076E-1,-1.3483242E0,1.7901744E-1,-1.1982868E0,5.5635595E-1,1.5372876E0,-1.1391788E0,1.2465235E0,-1.3561829E0,-1.7084824E-1,-1.522146E-1,-1.2830901E0,-1.3644859E0,-5.5874884E-1,-2.9904574E-2,-8.3646166E-1],"categories":[],"categories_nodes":[],"categories_segments":[],"categories_sizes":[],"default_left":[1,1,1,1,1,1,1,0,0,0,0,1,0,1,0,0,0,0,1,0,0],"id":7,"left_children":[1,3,5,7,9,11,13,-1,-1,-1,-1,15,-1,17,-1,-1,-1,-1,19,-1,-1],"loss_changes":[8.313043E1,1.5765509E1,5.1020813E0,2.0179322E0,3.7451935E-1,1.2970781E1,1.2566528E0,0E0,0E0,0E0,0E0,9.903431E-1,0E0,2.9455566E-1,0E0,0E0,0E0,0E0,4.6529627E-1,0E0,0E0],"parents":[2147483647,0,0,1,1,2,2,3,3,4,4,5,5,6,6,11,11,13,13,18,18],"right_children":[2,4,6,8,10,12,14,-1,-1,-1,-1,16,-1,18,-1,-1,-1,-1,20,-1,-1],"split_conditions":[-1.4415648E0,-8.1600326E-1,-1.249104E0,-1.7031233E0,-3.2971597E-1,5.479648E-1,1.698225E0,8.950872E-3,-5.991434E-2,2.7817799E-2,7.6864384E-2,-1.1531718E0,6.2326174E-2,1.6609683E0,-8.542412E-3,-7.6107304E-3,-6.4154506E-2,-6.8224296E-2,5.336907E-1,-1.4952287E-3,-4.1823085E-2],"split_indices":[0,1,0,0,1,1,2,0,0,0,0,1,0,1,0,0,0,0,0,0,0],"split_type":[0,0,0,0,0,0,0,0,0,0,0,0,0,0,0,0,0,0,0,0,0],"sum_hessian":[1.8636052E2,1.6950132E1,1.6941039E2,3.4454699E0,1.35046625E1,9.565165E0,1.5984521E2,1.2475904E0,2.1978793E0,1.9835556E0,1.1521107E1,7.347559E0,2.217605E0,1.5863469E2,1.2105385E0,1.1968801E0,6.150679E0,1.5629622E2,2.3384695E0,1.1865748E0,1.1518948E0],"tree_param":{"num_deleted":"0","num_feature":"7","num_nodes":"21","size_leaf_vector":"0"}},{"base_weights":[-1.0580797E0,9.397517E-1,-1.2634143E0,-7.4818045E-1,1.3958791E0,3.431468E-1,-1.4642067E0,1.7408562E-1,-1.1650685E0,5.3879786E-1,1.4896996E0,1.7298676E0,-1.377766E0,-7.483392E-1,-1.5152214E0,-1.4088802E0,7.999015E-1,1.1811553E0,-6.853832E-2],"categories":[],"categories_nodes":[],"categories_segments":[],"categories_sizes":[],"default_left":[1,1,1,1,1,1,1,0,0,0,0,0,0,1,0,0,1,0,0],"id":8,"left_children":[1,3,5,7,9,11,13,-1,-1,-1,-1,-1,-1,15,-1,-1,17,-1,-1],"loss_changes":[7.67186E1,1.4697678E1,5.449951E1,1.90365E0,3.4803963E-1,4.8695724E1,4.306885E0,0E0,0E0,0E0,0E0,0E0,0E0,1.3282927E1,0E0,0E0,1.469079E0,0E0,0E0],"parents":[2147483647,0,0,1,1,2,2,3,3,4,4,5,5,6,6,13,13,16,16],"right_children":[2,4,6,8,10,12,14,-1,-1,-1,-1,-1,-1,16,-1,-1,18,-1,-1],"split_conditions":[-1.4415648E0,-8.1600326E-1,-1.3589497E0,-1.7031233E0,-3.2971597E-1,7.5002015E-3,-1.197371E0,8.704281E-3,-5.8253426E-2,2.6939893E-2,7.448498E-2,8.649338E-2,-6.88883E-2,5.959331E-1,-7.576107E-2,-7.044401E-2,-1.2433157E0,5.905777E-2,-3.4269162E-3],"split_indices":[0,1,3,0,1,4,0,0,0,0,0,0,0,1,0,0,0,0,0],"split_type":[0,0,0,0,0,0,0,0,0,0,0,0,0,0,0,0,0,0,0],"sum_hessian":[1.8312212E2,1.6733593E1,1.6638852E2,3.423692E0,1.3309902E1,1.8406584E1,1.4798193E2,1.2471297E0,2.1765623E0,1.9785E0,1.1331402E1,1.01901245E1,8.216459E0,1.0886419E1,1.3709552E2,7.693906E0,3.192514E0,1.968315E0,1.2241989E0],"tree_param":{"num_deleted":"0","num_feature":"7","num_nodes":"19","size_leaf_vector":"0"}},{"base_weights":[-1.0283394E0,9.0841585E-1,-1.2291105E0,1.0403003E0,1.11836635E-1,3.308324E-1,-1.4262E0,-3.131026E-1,5.304104E-1,1.6613075E0,-1.3422742E0,-7.22485E-1,-1.4768436E0,-8.6703354E-1,1.9263227E-1,-7.965339E-2,-9.591565E-1,-5.2056056E-1,-1.142412E0],"categories":[],"categories_nodes":[],"categories_segments":[],"categories_sizes":[],"default_left":[1,1,1,0,1,1,1,0,0,0,0,1,0,1,0,0,1,0,0],"id":9,"left_children":[1,3,5,-1,7,9,11,-1,-1,-1,-1,13,-1,15,-1,-1,17,-1,-1],"loss_changes":[7.1154495E1,1.7214022E0,5.0778168E1,0E0,8.073335E-1,4.489362E1,4.1169434E0,0E0,0E0,0E0,0E0,1.7177362E0,0E0,6.711359E-1,0E0,0E0,1.3958836E-1,0E0,0E0],"parents":[2147483647,0,0,1,1,2,2,4,4,5,5,6,6,11,11,13,13,16,16],"right_children":[2,4,6,-1,8,10,12,-1,-1,-1,-1,14,-1,16,-1,-1,18,-1,-1],"split_conditions":[-1.4415648E0,-1.4860623E0,-1.3589497E0,5.2015014E-2,-1.464718E0,7.5002015E-3,-1.197371E0,-1.565513E-2,2.652052E-2,8.3065376E-2,-6.711371E-2,1.4882169E0,-7.384218E-2,-1.411538E0,9.631614E-3,-3.9826697E-3,1.2127348E-1,-2.6028028E-2,-5.71206E-2],"split_indices":[0,0,3,0,0,4,0,0,0,0,0,3,0,0,0,0,5,0,0],"split_type":[0,0,0,0,0,0,0,0,0,0,0,0,0,0,0,0,0,0,0],"sum_hessian":[1.7911812E2,1.649294E1,1.6262518E2,1.3887687E1,2.605253E0,1.8165848E1,1.4445934E2,1.4178344E0,1.1874187E0,1.0122981E1,8.042868E0,1.0723099E1,1.3373624E2,9.305742E0,1.4173568E0,1.1700346E0,8.135708E0,3.529346E0,4.6063614E0],"tree_param":{"num_deleted":"0","num_feature":"7","num_nodes":"19","size_leaf_vector":"0"}},{"base_weights":[-1.0004491E0,-1.1301943E0,-7.8610164E-1,-1.1401782E0,-1.1670685E-1,-4.207708E-1,-8.9052683E-1,-9.8860127E-1,-1.2726753E0,2.9180588E-2,-9.8291856E-1,-1.460093E-1,-9.308099E-1,-1.0181996E0,-4.0443367E-3,-3.5797542E-1,3.379728E-1,-3.16255E-3,-1.2306844E0,-5.7131594E-1,3.6997458E-1,-5.3572536E-1,-1.0002899E0,-1.0761365E0,-6.1752117E-1,3.0717176E-1,-9.6939945E-1,-1.9920526E-1,5.1846856E-1,-6.998067E-1,4.9689233E-2,-1.0601319E0,-4.7429284E-1,6.3852775E-1,-8.9147705E-1,5.426797E-1,-7.5579464E-2,9.592358E-2,9.505966E-1,-8.1394434E-1,-2.533332E-1,-1.087879E0,-1.06743805E-1,3.302115E-1,-7.3006016E-1],"categories":[],"categories_nodes":[],"categories_segments":[],"categories_sizes":[],"default_left":[1,1,1,1,0,1,1,1,0,1,1,1,1,1,0,1,1,0,0,0,0,1,1,0,1,1,0,0,1,1,0,1,1,0,0,0,0,0,0,0,0,0,0,0,0],"id":10,"left_children":[1,3,5,7,-1,9,11,13,-1,15,17,19,21,23,-1,25,27,-1,-1,-1,-1,29,31,-1,33,35,-1,-1,37,39,-1,41,43,-1,-1,-1,-1,-1,-1,-1,-1,-1,-1,-1,-1],"loss_changes":[4.00856E0,9.5370483E-1,2.2835464E0,8.755493E-1,0E0,4.4260883E0,1.4624672E0,1.5704689E0,0E0,1.3915005E0,1.8793211E0,1.0719713E0,8.468704E-1,5.530968E-1,0E0,2.412955E0,7.263747E-1,0E0,0E0,0E0,0E0,9.652519E-1,8.0932236E-1,0E0,3.6567953E0,3.3401346E-1,0E0,0E0,8.378005E-1,1.8274903E-1,0E0,8.5256195E-1,1.4895989E0,0E0,0E0,0E0,0E0,0E0,0E0,0E0,0E0,0E0,0E0,0E0,0E0],"parents":[2147483647,0,0,1,1,2,2,3,3,5,5,6,6,7,7,9,9,10,10,11,11,12,12,13,13,15,15,16,16,21,21,22,22,24,24,25,25,28,28,29,29,31,31,32,32],"right_children":[2,4,6,8,-1,10,12,14,-1,16,18,20,22,24,-1,26,28,-1,-1,-1,-1,30,32,-1,34,36,-1,-1,38,40,-1,42,44,-1,-1,-1,-1,-1,-1,-1,-1,-1,-1,-1,-1],"split_conditions":[4.3708152E-1,1.6844488E0,-9.079344E-1,7.5002015E-3,-5.8353427E-3,-6.5867733E-3,4.90959E-1,1.5681543E0,-6.363376E-2,9.285828E-1,-1.0529971E0,4.7357917E-1,-1.256782E0,1.2282467E0,-2.0221683E-4,7.238485E-1,-1.0141981E0,-1.581275E-4,-6.1534222E-2,-2.8565798E-2,1.849873E-2,7.73646E-1,1.2498779E0,-5.3806823E-2,1.3477339E0,-1.7023404E-1,-4.8469972E-2,-9.960263E-3,-7.9872155E-1,-1.3945447E0,2.4844618E-3,1.5845709E0,-6.196302E-1,3.192639E-2,-4.4573855E-2,2.7133986E-2,-3.7789734E-3,4.796179E-3,4.7529828E-2,-4.0697217E-2,-1.266666E-2,-5.4393947E-2,-5.3371903E-3,1.6510574E-2,-3.650301E-2],"split_indices":[1,2,6,4,0,2,1,6,0,1,5,1,2,5,0,1,5,0,0,0,0,5,5,0,5,5,0,0,2,2,0,2,2,0,0,0,0,0,0,0,0,0,0,0,0],"split_type":[0,0,0,0,0,0,0,0,0,0,0,0,0,0,0,0,0,0,0,0,0,0,0,0,0,0,0,0,0,0,0,0,0,0,0,0,0,0,0,0,0,0,0,0,0],"sum_hessian":[1.750836E2,1.064041E2,6.86795E1,1.0524235E2,1.1617538E0,1.6385235E1,5.2294262E1,5.3033356E1,5.2208992E1,9.627407E0,6.7578278E0,2.9215918E0,4.937267E1,5.14524E1,1.5809579E0,4.2010093E0,5.4263973E0,1.5684341E0,5.1893935E0,1.5427355E0,1.3788564E0,8.686882E0,4.0685787E1,4.3479588E1,7.972811E0,2.2504427E0,1.9505665E0,1.3386755E0,4.087722E0,6.6325054E0,2.0543773E0,3.561809E1,5.0676956E0,1.1892948E0,6.7835164E0,1.134526E0,1.1159167E0,2.684618E0,1.4031037E0,4.6266775E0,2.005828E0,3.4473713E1,1.1443782E0,1.152258E0,3.9154375E0],"tree_param":{"num_deleted":"0","num_feature":"7","num_nodes":"45","size_leaf_vector":"0"}},{"base_weights":[-9.682505E-1,4.6700045E-1,-1.1541796E0,9.474983E-1,1.304205E-1,-1.296444E0,-9.414616E-1,-1.1467216E-2,1.1756865E0,-8.8322836E-1,5.138454E-1,-1.0188822E0,-4.9948087E-1,1.0802686E0,1.9932562E-1,-1.0648992E0,-1.9136807E-1,-1.7790732E-1,-1.0799172E0,5.6924033E-1,-3.256866E-1,-7.3698334E-2,-1.0850903E0,6.030612E-1,-7.1404636E-1,-6.2961084E-1,7.6203424E-1,1.9166975E-1,7.3186463E-1,-7.415385E-1,9.565841E-2,-1.1024965E0,-3.8496828E-1,-3.1649705E-2,-1.0511965E0,9.349371E-1,2.2140045E-1],"categories":[],"categories_nodes":[],"categories_segments":[],"categories_sizes":[],"default_left":[1,1,1,1,1,0,1,0,0,0,1,1,1,0,1,1,1,1,0,1,1,0,1,0,0,1,1,0,0,0,0,0,0,0,0,0,0],"id":11,"left_children":[1,3,5,7,9,-1,11,-1,-1,-1,13,15,17,-1,19,21,23,25,-1,27,29,-1,31,-1,-1,33,35,-1,-1,-1,-1,-1,-1,-1,-1,-1,-1],"loss_changes":[4.67731E1,3.2051005E0,3.429947E0,1.833847E0,5.608756E0,0E0,1.7234688E0,0E0,0E0,0E0,1.6116962E0,1.8735733E0,1.9891002E0,0E0,1.7041621E0,9.499283E-1,2.1301098E0,4.1808386E0,0E0,1.6376913E-1,7.4876994E-1,0E0,1.8928528E-1,0E0,0E0,1.5890031E0,9.978092E-2,0E0,0E0,0E0,0E0,0E0,0E0,0E0,0E0,0E0,0E0],"parents":[2147483647,0,0,1,1,2,2,3,3,4,4,6,6,10,10,11,11,12,12,14,14,15,15,16,16,17,17,19,19,20,20,22,22,25,25,26,26],"right_children":[2,4,6,8,10,-1,12,-1,-1,-1,14,16,18,-1,20,22,24,26,-1,28,30,-1,32,-1,-1,34,36,-1,-1,-1,-1,-1,-1,-1,-1,-1,-1],"split_conditions":[-1.3589497E0,-5.8764434E-1,3.4670648E-1,-1.427086E0,-5.9693627E-2,-6.4822204E-2,1.188824E0,-5.7336077E-4,5.8784325E-2,-4.416142E-2,-7.62821E-1,1.6182139E0,5.444635E-1,5.401343E-2,1.1395548E-1,3.7938055E-1,-4.4398293E-1,-1.7190187E-1,-5.399586E-2,4.7705513E-1,8.992021E-1,-3.6849168E-3,1.5432422E0,3.015306E-2,-3.5702318E-2,-1.0949111E0,-3.4088096E-1,9.583487E-3,3.6593232E-2,-3.7076928E-2,4.7829202E-3,-5.5124827E-2,-1.9248415E-2,-1.5824853E-3,-5.2559823E-2,4.6746857E-2,1.1070023E-2],"split_indices":[3,6,1,6,6,0,3,0,0,0,1,1,2,0,2,1,2,2,0,1,2,0,2,0,0,2,5,0,0,0,0,0,0,0,0,0,0],"split_type":[0,0,0,0,0,0,0,0,0,0,0,0,0,0,0,0,0,0,0,0,0,0,0,0,0,0,0,0,0,0,0,0,0,0,0,0,0],"sum_hessian":[1.7225562E2,1.958219E1,1.5267343E2,7.3188305E0,1.2263358E1,8.843441E1,6.423902E1,1.5893409E0,5.7294893E0,3.0079107E0,9.255447E0,5.3553024E1,1.0685993E1,2.4351997E0,6.820248E0,5.0460133E1,3.0928938E0,7.7170796E0,2.9689133E0,3.9517028E0,2.868545E0,1.1002024E0,4.935993E1,1.1663477E0,1.9265461E0,5.435247E0,2.2818327E0,1.8455136E0,2.1061893E0,1.0612241E0,1.807321E0,4.7601746E1,1.7581822E0,2.6920366E0,2.7432103E0,1.1762991E0,1.1055337E0],"tree_param":{"num_deleted":"0","num_feature":"7","num_nodes":"37","size_leaf_vector":"0"}},{"base_weights":[-9.38787E-1,9.3316513E-1,-1.1452063E0,-9.346766E-1,1.2919562E0,3.4215578E-1,-1.3409638E0,4.8254523E-1,1.4484969E0,8.328565E-1,1.95232E-2,-6.278575E-1,-1.3946865E0,1.1619904E0,-5.7615733E-1,-1.5550426E-1,1.0831839E0,-9.908307E-1,3.5116804E-1,-1.2914492E0,8.228565E-1,1.2176508E0,2.8693944E-1,1.0451214E0,-9.779288E-3,1.1791104E0,-2.9434996E-2,-5.0606424E-1,6.074075E-1],"categories":[],"categories_nodes":[],"categories_segments":[],"categories_sizes":[],"default_left":[1,1,1,0,1,1,1,1,0,1,1,1,0,0,0,0,1,0,1,0,1,0,0,0,1,0,0,0,0],"id":12,"left_children":[1,3,5,-1,7,9,11,13,-1,15,17,19,-1,-1,-1,-1,21,-1,23,-1,25,-1,-1,-1,27,-1,-1,-1,-1],"loss_changes":[6.675194E1,1.2890893E1,4.51671E1,0E0,1.2072105E0,2.9372327E0,4.33049E0,3.5019126E0,0E0,1.9934425E0,4.4624987E0,1.1978882E1,0E0,0E0,0E0,0E0,2.9421568E-1,0E0,2.5107975E0,0E0,1.3007822E0,0E0,0E0,0E0,2.622406E0,0E0,0E0,0E0,0E0],"parents":[2147483647,0,0,1,1,2,2,4,4,5,5,6,6,7,7,9,9,10,10,11,11,16,16,18,18,20,20,24,24],"right_children":[2,4,6,-1,8,10,12,14,-1,16,18,20,-1,-1,-1,-1,22,-1,24,-1,26,-1,-1,-1,28,-1,-1,-1,-1],"split_conditions":[-1.4415648E0,-1.0853904E0,-1.3589497E0,-4.673383E-2,-3.2971597E-1,-5.8764434E-1,-1.197371E0,-1.6477728E0,7.242485E-2,-1.427086E0,-1.3712639E-1,5.959331E-1,-6.973433E-2,5.809952E-2,-2.8807867E-2,-7.775213E-3,8.263613E-1,-4.9541537E-2,-8.0766094E-1,-6.457246E-2,-1.2433157E0,6.088254E-2,1.4346972E-2,5.2256074E-2,3.4195346E-1,5.895552E-2,-1.4717499E-3,-2.5303213E-2,3.0370375E-2],"split_indices":[0,1,3,0,1,6,0,0,0,6,6,1,0,0,0,0,0,0,1,0,0,0,0,0,0,0,0,0,0],"split_type":[0,0,0,0,0,0,0,0,0,0,0,0,0,0,0,0,0,0,0,0,0,0,0,0,0,0,0,0,0],"sum_hessian":[1.6898462E2,1.6433517E1,1.525511E2,2.3893986E0,1.4044119E1,1.7655678E1,1.3489543E2,2.9375832E0,1.1106536E1,6.3763194E0,1.1279358E1,1.0339371E1,1.2455605E2,1.7298524E0,1.2077309E0,1.365146E0,5.0111732E0,2.2962427E0,8.983115E0,7.169604E0,3.169767E0,3.834392E0,1.1767812E0,2.4251165E0,6.5579987E0,1.9649626E0,1.2048042E0,3.7348344E0,2.8231642E0],"tree_param":{"num_deleted":"0","num_feature":"7","num_nodes":"29","size_leaf_vector":"0"}},{"base_weights":[-9.1544896E-1,9.0358394E-1,-1.1182727E0,1.022099E0,1.5855412E-1,3.3114916E-1,-1.31341E0,5.411372E-1,-2.5754753E-1,1.5634849E0,-1.2721838E0,-6.075726E-1,-1.3672451E0,-7.4917203E-1,2.3107442E-1,-1.305891E-1,-8.741928E-1],"categories":[],"categories_nodes":[],"categories_segments":[],"categories_sizes":[],"default_left":[1,1,1,0,1,1,1,0,0,0,0,1,0,1,0,0,0],"id":13,"left_children":[1,3,5,-1,7,9,11,-1,-1,-1,-1,13,-1,15,-1,-1,-1],"loss_changes":[6.2137833E1,1.3543272E0,4.272145E1,0E0,7.030026E-1,3.861884E1,4.1840057E0,0E0,0E0,0E0,0E0,1.4974322E0,0E0,6.4193344E-1,0E0,0E0,0E0],"parents":[2147483647,0,0,1,1,2,2,4,4,5,5,6,6,11,11,13,13],"right_children":[2,4,6,-1,8,10,12,-1,-1,-1,-1,14,-1,16,-1,-1,-1],"split_conditions":[-1.4415648E0,-1.4860623E0,-1.3589497E0,5.110495E-2,3.8457292E-1,7.5002015E-3,-1.197371E0,2.7056862E-2,-1.2877377E-2,7.817425E-2,-6.360919E-2,1.4882169E0,-6.836226E-2,-8.951844E-1,1.15537215E-2,-6.529455E-3,-4.370964E-2],"split_indices":[0,0,3,0,3,4,0,0,0,0,0,3,0,3,0,0,0],"split_type":[0,0,0,0,0,0,0,0,0,0,0,0,0,0,0,0,0],"sum_hessian":[1.6468243E2,1.6173624E1,1.4850882E2,1.3633062E1,2.5405602E0,1.7538809E1,1.3097002E2,1.1670384E0,1.3735219E0,9.930778E0,7.60803E0,1.0151975E1,1.2081803E2,8.776772E0,1.3752034E0,1.8193676E0,6.9574037E0],"tree_param":{"num_deleted":"0","num_feature":"7","num_nodes":"17","size_leaf_vector":"0"}},{"base_weights":[-8.9418286E-1,4.2416927E-1,-1.0726651E0,8.548585E-1,1.19636305E-1,-1.2148848E0,-8.6210734E-1,-1.1529811E-2,1.062077E0,-8.222461E-1,4.6877244E-1,-5.394437E-1,-9.670504E-1,4.888713E-2,7.929038E-1,4.088171E-1,-6.864014E-1,-1.0317763E0,-5.568238E-1,3.4015504E-1,-3.6853033E-1,1.1002046E0,-2.0766165E-2,-7.8422344E-1,2.9678214E-1,-1.070918E0,-1.9464773E-1,1.01995446E-1,-8.952721E-1,5.29057E-1,-5.0491504E-2,-9.636787E-1,-4.44803E-1,-1.1099588E0,-3.8515666E-1,4.2891204E-1,-2.4854724E-1,-1.0667319E0,-6.966688E-2],"categories":[],"categories_nodes":[],"categories_segments":[],"categories_sizes":[],"default_left":[1,1,1,1,1,0,1,0,0,0,1,1,1,1,1,0,1,1,1,1,0,0,0,1,0,1,0,1,1,0,0,0,0,0,0,0,0,0,0],"id":14,"left_children":[1,3,5,7,9,-1,11,-1,-1,-1,13,15,17,19,21,-1,23,25,27,29,-1,-1,-1,31,-1,33,-1,35,37,-1,-1,-1,-1,-1,-1,-1,-1,-1,-1],"loss_changes":[3.8412674E1,2.5145779E0,3.2157593E0,1.466702E0,4.6112175E0,0E0,1.5383263E0,0E0,0E0,0E0,1.323858E0,2.6763854E0,6.1089706E-1,7.852304E-1,1.4192257E0,0E0,1.7002497E0,1.0166168E0,1.932306E0,3.0099094E-1,0E0,0E0,0E0,4.3337345E-1,0E0,5.228081E-1,0E0,5.3059125E-1,7.1227837E-1,0E0,0E0,0E0,0E0,0E0,0E0,0E0,0E0,0E0,0E0],"parents":[2147483647,0,0,1,1,2,2,3,3,4,4,6,6,10,10,11,11,12,12,13,13,14,14,16,16,17,17,18,18,19,19,23,23,25,25,27,27,28,28],"right_children":[2,4,6,8,10,-1,12,-1,-1,-1,14,16,18,20,22,-1,24,26,28,30,-1,-1,-1,32,-1,34,-1,36,38,-1,-1,-1,-1,-1,-1,-1,-1,-1,-1],"split_conditions":[-1.3589497E0,-5.8764434E-1,3.4670648E-1,-1.427086E0,-5.9693627E-2,-6.0744237E-2,-9.950332E-1,-5.7649054E-4,5.3103853E-2,-4.1112304E-2,1.1783994E-1,-1.4077277E0,1.188824E0,3.7914842E-1,1.2749429E0,2.0440856E-2,1.6415029E0,1.5432422E0,-3.3264047E-1,-1.5291926E0,-1.8426517E-2,5.501023E-2,-1.0383083E-3,8.45346E-2,1.4839107E-2,1.3631848E0,-9.732387E-3,-4.73255E-1,1.422088E0,2.6452852E-2,-2.5245752E-3,-4.8183937E-2,-2.224015E-2,-5.549794E-2,-1.9257834E-2,2.1445602E-2,-1.2427363E-2,-5.3336598E-2,-3.4833439E-3],"split_indices":[3,6,1,6,6,0,2,0,0,0,5,6,3,2,5,0,1,2,5,3,0,0,0,5,0,5,0,6,6,0,0,0,0,0,0,0,0,0,0],"split_type":[0,0,0,0,0,0,0,0,0,0,0,0,0,0,0,0,0,0,0,0,0,0,0,0,0,0,0,0,0,0,0,0,0,0,0,0,0,0,0],"sum_hessian":[1.6031447E2,1.8951725E1,1.4136275E2,7.10139E0,1.1850335E1,8.152646E1,5.9836285E1,1.5529224E0,5.5484676E0,2.8382788E0,9.012056E0,1.6191956E1,4.364433E1,4.427466E0,4.5845904E0,1.9335634E0,1.4258392E1,3.638788E1,7.25645E0,2.7168107E0,1.7106552E0,3.072167E0,1.5124238E0,1.3152178E1,1.1062146E0,3.449569E1,1.8921906E0,2.699763E0,4.556687E0,1.5924501E0,1.1243606E0,7.400346E0,5.7518315E0,3.2052345E1,2.4433427E0,1.2812767E0,1.4184864E0,3.5312622E0,1.025425E0],"tree_param":{"num_deleted":"0","num_feature":"7","num_nodes":"39","size_leaf_vector":"0"}},{"base_weights":[-8.6905575E-1,8.984256E-1,-1.0750641E0,-8.944324E-1,1.2469065E0,3.0665767E-1,-1.2665876E0,4.736597E-1,1.3975856E0,1.4893268E0,-1.2413436E0,-5.499316E-1,-1.3234202E0,1.1234665E0,-5.4545915E-1,-1.2213025E0,8.3369017E-1,1.1753869E0,-8.575074E-3],"categories":[],"categories_nodes":[],"categories_segments":[],"categories_sizes":[],"default_left":[1,1,1,0,1,1,1,1,0,0,0,1,0,0,0,0,1,0,0],"id":15,"left_children":[1,3,5,-1,7,9,11,13,-1,-1,-1,15,-1,-1,-1,-1,17,-1,-1],"loss_changes":[5.8483757E1,1.175802E1,3.794803E1,0E0,1.048418E0,3.4955574E1,4.357193E0,3.1999779E0,0E0,0E0,0E0,1.1128828E1,0E0,0E0,0E0,0E0,1.2045102E0,0E0,0E0],"parents":[2147483647,0,0,1,1,2,2,4,4,5,5,6,6,7,7,11,11,16,16],"right_children":[2,4,6,-1,8,10,12,14,-1,-1,-1,16,-1,-1,-1,-1,18,-1,-1],"split_conditions":[-1.4415648E0,-1.0853904E0,-1.3589497E0,-4.4721622E-2,-3.2971597E-1,7.5002015E-3,-1.197371E0,-1.6477728E0,6.9879286E-2,7.446634E-2,-6.206718E-2,5.959331E-1,-6.617101E-2,5.6173325E-2,-2.7272958E-2,-6.1065126E-2,-1.2433157E0,5.8769345E-2,-4.2875373E-4],"split_indices":[0,1,3,0,1,4,0,0,0,0,0,1,0,0,0,0,0,0,0],"split_type":[0,0,0,0,0,0,0,0,0,0,0,0,0,0,0,0,0,0,0],"sum_hessian":[1.5696591E2,1.6034475E1,1.4093144E2,2.3544884E0,1.3679986E1,1.708351E1,1.2384793E2,2.9067566E0,1.077323E1,9.70603E0,7.3774796E0,9.884256E0,1.1396368E2,1.7124686E0,1.194288E0,6.7340345E0,3.1502216E0,1.9596918E0,1.1905298E0],"tree_param":{"num_deleted":"0","num_feature":"7","num_nodes":"19","size_leaf_vector":"0"}},{"base_weights":[-8.513349E-1,8.716172E-1,-1.0549294E0,-8.6871123E-1,1.2134714E0,-4.397941E-1,-1.1099007E0,4.594996E-1,1.3625685E0,-8.588987E-1,9.0029E-1,-9.2572373E-1,-1.2951118E0,1.0936036E0,-5.3156495E-1,-4.0147427E-1,-1.1500115E0,-9.381511E-1,-8.467093E-2,2.294728E-1,-6.059269E-1,-6.659023E-1,-1.012555E0,-7.8668714E-1,-2.2724014E-2,-1.0748569E0,-2.3052199E-1],"categories":[],"categories_nodes":[],"categories_segments":[],"categories_sizes":[],"default_left":[1,1,1,0,1,1,1,1,0,1,0,1,0,0,0,1,0,1,0,0,1,1,0,0,0,0,0],"id":16,"left_children":[1,3,5,-1,7,9,11,13,-1,15,-1,17,-1,-1,-1,19,-1,21,-1,-1,23,25,-1,-1,-1,-1,-1],"loss_changes":[5.4707565E1,1.1020558E1,4.164276E0,0E0,9.9479485E-1,8.04245E0,3.0869293E0,3.0255547E0,0E0,9.193492E-1,0E0,6.1566925E-1,0E0,0E0,0E0,8.575401E-1,0E0,6.512184E-1,0E0,0E0,4.5454633E-1,2.7729745E0,0E0,0E0,0E0,0E0,0E0],"parents":[2147483647,0,0,1,1,2,2,4,4,5,5,6,6,7,7,9,9,11,11,15,15,17,17,20,20,21,21],"right_children":[2,4,6,-1,8,10,12,14,-1,16,-1,18,-1,-1,-1,20,-1,22,-1,-1,24,26,-1,-1,-1,-1,-1],"split_conditions":[-1.4415648E0,-1.0853904E0,-1.1807299E0,-4.3435562E-2,-3.2971597E-1,9.1885006E-1,7.5002015E-3,-1.6477728E0,6.812843E-2,7.5002015E-3,4.50145E-2,1.6913369E0,-6.475559E-2,5.468018E-2,-2.6578248E-2,-1.1500161E0,-5.750058E-2,-8.622336E-1,-4.2335466E-3,1.147364E-2,4.2212103E-2,9.0714976E-2,-5.062775E-2,-3.9334357E-2,-1.1362007E-3,-5.3742845E-2,-1.1526099E-2],"split_indices":[0,1,0,0,1,1,4,0,0,4,0,2,0,0,0,2,0,1,0,0,1,5,0,0,0,0,0],"split_type":[0,0,0,0,0,0,0,0,0,0,0,0,0,0,0,0,0,0,0,0,0,0,0,0,0,0,0],"sum_hessian":[1.523369E2,1.5751986E1,1.3658492E2,2.3331406E0,1.3418844E1,1.1942903E1,1.24642006E2,2.889378E0,1.0529467E1,9.371183E0,2.5717196E0,6.5502945E1,5.9139065E1,1.6989138E0,1.1904643E0,4.569791E0,4.801392E0,6.4435394E1,1.0675468E0,1.0884436E0,3.4813473E0,1.5965686E1,4.846971E1,2.391277E0,1.0900701E0,7.4753137E0,8.490372E0],"tree_param":{"num_deleted":"0","num_feature":"7","num_nodes":"27","size_leaf_vector":"0"}},{"base_weights":[-8.3102465E-1,8.466322E-1,-1.0307115E0,-8.4416056E-1,1.1824863E0,-4.2684585E-1,-1.085355E0,4.4609588E-1,1.3303354E0,-8.3763826E-1,8.696836E-1,-8.996439E-1,-1.2748846E0,1.0654751E0,-5.1811355E-1,-3.8930273E-1,-1.1270053E0,-6.454125E-1,-9.675207E-1,-6.052526E-1,1.6554879E-1,-1.0532405E0,-2.2079557E-1,-1.5449409E-1,-8.322067E-1,3.38441E-1,-5.527431E-1],"categories":[],"categories_nodes":[],"categories_segments":[],"categories_sizes":[],"default_left":[1,1,1,0,1,1,1,1,0,1,0,1,0,0,0,1,0,1,0,1,0,0,1,0,0,0,0],"id":17,"left_children":[1,3,5,-1,7,9,11,13,-1,15,-1,17,-1,-1,-1,19,-1,21,-1,23,-1,-1,25,-1,-1,-1,-1],"loss_changes":[5.0973366E1,1.0343106E1,3.961502E0,0E0,9.466553E-1,7.532774E0,3.1584473E0,2.8630862E0,0E0,8.8596773E-1,0E0,5.003166E-1,0E0,0E0,0E0,7.6316875E-1,0E0,2.6661248E0,0E0,3.0085647E-1,0E0,0E0,1.9442862E0,0E0,0E0,0E0,0E0],"parents":[2147483647,0,0,1,1,2,2,4,4,5,5,6,6,7,7,9,9,11,11,15,15,17,17,19,19,22,22],"right_children":[2,4,6,-1,8,10,12,14,-1,16,-1,18,-1,-1,-1,20,-1,22,-1,24,-1,-1,26,-1,-1,-1,-1],"split_conditions":[-1.4415648E0,-1.0853904E0,-1.1807299E0,-4.2208027E-2,-3.2971597E-1,9.1885006E-1,7.5002015E-3,-1.6477728E0,6.651677E-2,7.5002015E-3,4.348418E-2,-8.622336E-1,-6.374423E-2,5.3273756E-2,-2.5905678E-2,4.2212103E-2,-5.635027E-2,9.0714976E-2,-4.8376035E-2,-6.7035663E-1,8.2774395E-3,-5.2662026E-2,6.565623E-1,-7.7247047E-3,-4.1610338E-2,1.6922051E-2,-2.7637154E-2],"split_indices":[0,1,0,0,1,1,4,0,0,4,0,1,0,0,0,1,0,5,0,6,0,0,5,0,0,0,0],"split_type":[0,0,0,0,0,0,0,0,0,0,0,0,0,0,0,0,0,0,0,0,0,0,0,0,0,0,0],"sum_hessian":[1.4855167E2,1.545635E1,1.330953E2,2.310601E0,1.3145749E1,1.1775512E1,1.213198E2,2.869734E0,1.0276015E1,9.211028E0,2.5644841E0,6.417975E1,5.714005E1,1.6833658E0,1.1863682E0,4.533044E0,4.677984E0,1.5738835E1,4.8440914E1,3.1976657E0,1.3353782E0,7.272976E0,8.465859E0,1.6336889E0,1.5639766E0,3.1460698E0,5.31979E0],"tree_param":{"num_deleted":"0","num_feature":"7","num_nodes":"27","size_leaf_vector":"0"}},{"base_weights":[-8.117033E-1,7.3865235E-1,-1.018881E0,-2.2092098E-1,1.3132647E0,3.9343438E-1,-1.2230271E0,6.5263236E-1,-9.729437E-1,7.587886E-1,1.6117857E-1,-5.595286E-1,-1.2692662E0,-1.393593E-1,1.0402317E0,-1.0903447E0,-3.0696544E-1,3.724525E-1,9.9278647E-1,-4.3218255E-1,3.986708E-1,-1.1669279E0,9.55431E-1,-1.0666318E-1,7.453399E-1,-8.577001E-1,3.2776976E-1,6.817963E-1,-4.050696E-1,2.627659E-1,1.10849E0],"categories":[],"categories_nodes":[],"categories_segments":[],"categories_sizes":[],"default_left":[1,1,1,1,0,1,1,1,1,1,1,1,0,0,0,0,0,1,0,1,1,0,0,0,0,0,0,1,0,0,0],"id":18,"left_children":[1,3,5,7,-1,9,11,13,15,17,19,21,-1,-1,-1,-1,-1,23,-1,25,27,-1,-1,-1,-1,-1,-1,29,-1,-1,-1],"loss_changes":[4.757895E1,1.0085417E1,3.7680405E1,5.5683165E0,0E0,1.3245685E0,2.7556763E0,1.3951663E0,1.22179985E-2,2.0491791E-1,1.8201947E0,9.533073E0,0E0,0E0,0E0,0E0,0E0,7.938294E-1,0E0,1.5172048E0,2.2949696E0,0E0,0E0,0E0,0E0,0E0,0E0,9.483657E-1,0E0,0E0,0E0],"parents":[2147483647,0,0,1,1,2,2,3,3,5,5,6,6,7,7,8,8,9,9,10,10,11,11,17,17,19,19,20,20,27,27],"right_children":[2,4,6,8,-1,10,12,14,16,18,20,22,-1,-1,-1,-1,-1,24,-1,26,28,-1,-1,-1,-1,-1,-1,30,-1,-1,-1],"split_conditions":[-1.4003232E0,-2.5567797E-1,-1.3589497E0,-1.6712878E0,6.566324E-2,-5.54193E-1,-1.197371E0,-9.797212E-1,8.4065306E-1,2.69238E-1,-1.4779341E-1,9.1885006E-1,-6.3463315E-2,-6.967965E-3,5.2011587E-2,-5.4517236E-2,-1.5348272E-2,-8.021656E-1,4.9639326E-2,3.2350898E-1,8.835193E-1,-5.83464E-2,4.777155E-2,-5.333159E-3,3.7266996E-2,-4.2885005E-2,1.6388489E-2,1.1783994E-1,-2.025348E-2,1.3138296E-2,5.54245E-2],"split_indices":[0,1,3,0,0,2,0,1,2,0,2,1,0,0,0,0,0,2,0,5,5,0,0,0,0,0,0,5,0,0,0],"split_type":[0,0,0,0,0,0,0,0,0,0,0,0,0,0,0,0,0,0,0,0,0,0,0,0,0,0,0,0,0,0,0],"sum_hessian":[1.447861E2,1.6764956E1,1.2802115E2,6.50967E0,1.0255285E1,1.6050945E1,1.119702E2,3.0726402E0,3.4370298E0,5.356993E0,1.06939535E1,8.148323E0,1.0382188E2,1.2200783E0,1.8525618E0,2.3802278E0,1.0568019E0,2.9983454E0,2.3586476E0,2.822448E0,7.8715053E0,5.980333E0,2.1679907E0,1.6247234E0,1.3736221E0,1.7268918E0,1.0955563E0,5.933198E0,1.938307E0,3.80871E0,2.1244879E0],"tree_param":{"num_deleted":"0","num_feature":"7","num_nodes":"31","size_leaf_vector":"0"}},{"base_weights":[-7.9494995E-1,4.5742342E-1,-9.7965163E-1,1.4570347E0,-8.1994724E-1,-1.1162777E0,-7.781814E-1,-1.0082436E-1,-9.810624E-1,-4.6958613E-1,-8.795709E-1,3.5498822E-1,-6.012063E-1,-9.3964386E-1,-4.9548334E-1,-6.9455636E-1,2.786038E-1,-9.776091E-1,-1.6265136E-1,-1.2594832E-1,-8.9839065E-1,-7.4993294E-1,-8.4612966E-2,-8.584664E-1,6.6408753E-1],"categories":[],"categories_nodes":[],"categories_segments":[],"categories_sizes":[],"default_left":[1,1,1,0,1,0,1,0,0,1,1,0,1,1,1,1,0,0,0,1,0,0,0,0,0],"id":19,"left_children":[1,3,5,-1,7,-1,9,-1,-1,11,13,-1,15,17,19,21,-1,-1,-1,23,-1,-1,-1,-1,-1],"loss_changes":[3.317227E1,2.5281984E1,2.5337143E0,0E0,9.347377E-1,0E0,1.2531052E0,0E0,0E0,1.8755043E0,4.3282127E-1,0E0,1.3086424E0,8.013191E-1,9.859079E-1,3.6083078E-1,0E0,0E0,0E0,3.471425E0,0E0,0E0,0E0,0E0,0E0],"parents":[2147483647,0,0,1,1,2,2,4,4,6,6,9,9,10,10,12,12,13,13,14,14,15,15,19,19],"right_children":[2,4,6,-1,8,-1,10,-1,-1,12,14,-1,16,18,20,22,-1,-1,-1,24,-1,-1,-1,-1,-1],"split_conditions":[-1.3589497E0,7.5002015E-3,3.4670648E-1,7.285174E-2,-8.533795E-1,-5.5813886E-2,-9.950332E-1,-5.0412184E-3,-4.905312E-2,-1.4077277E0,1.188824E0,1.7749412E-2,1.6415029E0,1.5432422E0,5.444635E-1,1.3766785E0,1.3930189E-2,-4.8880454E-2,-8.132569E-3,-1.7190187E-1,-4.491953E-2,-3.749665E-2,-4.2306483E-3,-4.292332E-2,3.3204377E-2],"split_indices":[3,4,1,0,6,0,2,0,0,6,3,0,1,2,2,3,0,0,0,2,0,0,0,0,0],"split_type":[0,0,0,0,0,0,0,0,0,0,0,0,0,0,0,0,0,0,0,0,0,0,0,0,0],"sum_hessian":[1.4046977E2,1.7864264E1,1.22605515E2,9.94282E0,7.9214435E0,7.035437E1,5.225114E1,1.7474867E0,6.173957E0,1.4314419E1,3.793672E1,1.7367789E0,1.2577641E1,3.1554958E1,6.381762E0,1.1561498E1,1.0161427E0,2.9838787E1,1.716171E0,4.013393E0,2.3683693E0,1.038879E1,1.1727071E0,2.0375593E0,1.9758335E0],"tree_param":{"num_deleted":"0","num_feature":"7","num_nodes":"25","size_leaf_vector":"0"}},{"base_weights":[-7.75475E-1,7.474566E-1,-9.872475E-1,-1.7016141E-1,1.2940837E0,3.6492556E-1,-1.1902086E0,6.715038E-1,-9.214943E-1,7.131797E-1,1.4296453E-1,-5.146129E-1,-1.2387419E0,-1.0526609E-1,1.0391244E0,-1.0409062E0,-2.7422607E-1,3.4826824E-1,9.314253E-1,-4.2279434E-1,3.705406E-1,-1.1251968E0,9.3534946E-1,-1.0565135E-1,7.0035297E-1,-8.3171403E-1,3.0629283E-1,6.371246E-1,-3.87145E-1,2.3914352E-1,1.0458845E0],"categories":[],"categories_nodes":[],"categories_segments":[],"categories_sizes":[],"default_left":[1,1,1,1,0,1,1,1,1,1,1,1,0,0,0,0,0,1,0,1,1,0,0,0,0,0,0,1,0,0,0],"id":20,"left_children":[1,3,5,7,-1,9,11,13,15,17,19,21,-1,-1,-1,-1,-1,23,-1,25,27,-1,-1,-1,-1,-1,-1,29,-1,-1,-1],"loss_changes":[4.526912E1,8.960631E0,3.3819633E1,5.291333E0,0E0,1.1844363E0,2.8383942E0,1.2697248E0,4.8880816E-2,1.7155504E-1,1.6263278E0,8.857129E0,0E0,0E0,0E0,0E0,0E0,7.017196E-1,0E0,1.3702188E0,1.998519E0,0E0,0E0,0E0,0E0,0E0,0E0,8.550856E-1,0E0,0E0,0E0],"parents":[2147483647,0,0,1,1,2,2,3,3,5,5,6,6,7,7,8,8,9,9,10,10,11,11,17,17,19,19,20,20,27,27],"right_children":[2,4,6,8,-1,10,12,14,16,18,20,22,-1,-1,-1,-1,-1,24,-1,26,28,-1,-1,-1,-1,-1,-1,30,-1,-1,-1],"split_conditions":[-1.4003232E0,-2.5567797E-1,-1.3589497E0,-1.6712878E0,6.470419E-2,-5.54193E-1,-1.197371E0,-9.797212E-1,8.4065306E-1,2.69238E-1,-1.4779341E-1,9.1885006E-1,-6.1937094E-2,-5.2633043E-3,5.1956218E-2,-5.204531E-2,-1.37113035E-2,-8.021656E-1,4.6571266E-2,3.2350898E-1,8.835193E-1,-5.625984E-2,4.6767473E-2,-5.2825673E-3,3.501765E-2,-4.1585702E-2,1.5314641E-2,1.1783994E-1,-1.9357251E-2,1.1957176E-2,5.2294225E-2],"split_indices":[0,1,3,0,0,2,0,1,2,0,2,1,0,0,0,0,0,2,0,5,5,0,0,0,0,0,0,5,0,0,0],"split_type":[0,0,0,0,0,0,0,0,0,0,0,0,0,0,0,0,0,0,0,0,0,0,0,0,0,0,0,0,0,0,0],"sum_hessian":[1.3707478E2,1.6425274E1,1.2064951E2,6.388934E0,1.003634E1,1.5641852E1,1.0500766E2,3.0634346E0,3.3254995E0,5.22726E0,1.0414593E1,7.815619E0,9.719205E1,1.2133411E0,1.8500936E0,2.2941148E0,1.0313848E0,2.9277532E0,2.299507E0,2.741457E0,7.6731353E0,5.6572957E0,2.1583233E0,1.5846696E0,1.3430836E0,1.6661888E0,1.0752681E0,5.793772E0,1.8793628E0,3.7387033E0,2.0550692E0],"tree_param":{"num_deleted":"0","num_feature":"7","num_nodes":"31","size_leaf_vector":"0"}},{"base_weights":[-7.602233E-1,7.276329E-1,-9.6953166E-1,-1.6598378E-1,1.2671952E0,3.546787E-1,-1.1742251E0,5.3644675E-1,-1.0412685E0,1.4070302E0,-1.1415609E0,-5.0049835E-1,-1.223336E0,-5.452192E-1,1.1550975E0,-1.1053139E0,9.072151E-1],"categories":[],"categories_nodes":[],"categories_segments":[],"categories_sizes":[],"default_left":[1,1,1,1,0,1,1,1,0,0,0,1,0,0,0,0,0],"id":21,"left_children":[1,3,5,7,-1,9,11,13,-1,-1,-1,15,-1,-1,-1,-1,-1],"loss_changes":[4.238983E1,8.445192E0,3.2339767E1,5.0554824E0,0E0,2.7642977E1,2.7704773E0,3.7867374E0,0E0,0E0,0E0,8.357718E0,0E0,0E0,0E0,0E0,0E0],"parents":[2147483647,0,0,1,1,2,2,3,3,5,5,6,6,7,7,11,11],"right_children":[2,4,6,8,-1,10,12,14,-1,-1,-1,16,-1,-1,-1,-1,-1],"split_conditions":[-1.4003232E0,-2.5567797E-1,-1.3589497E0,-1.5971252E0,6.335976E-2,7.5002015E-3,-1.197371E0,-1.0853904E0,-5.2063424E-2,7.035151E-2,-5.7078045E-2,9.1885006E-1,-6.11668E-2,-2.726096E-2,5.7754874E-2,-5.5265695E-2,4.5360755E-2],"split_indices":[0,1,3,0,0,4,0,1,0,0,0,1,0,0,0,0,0],"split_type":[0,0,0,0,0,0,0,0,0,0,0,0,0,0,0,0,0],"sum_hessian":[1.3285228E2,1.6079033E1,1.1677325E2,6.3140893E0,9.764944E0,1.5535794E1,1.0123745E2,3.7176948E0,2.5963943E0,9.155835E0,6.3799596E0,7.6385965E0,9.3598854E1,1.3958497E0,2.321845E0,5.493265E0,2.1453316E0],"tree_param":{"num_deleted":"0","num_feature":"7","num_nodes":"17","size_leaf_vector":"0"}},{"base_weights":[-7.479622E-1,7.095324E-1,-9.5558554E-1,-1.62862E-1,1.2421229E0,-7.78431E-1,-1.1330972E0,5.207172E-1,-1.0198509E0,-3.804621E-2,-8.0939025E-1,-3.9544156E-1,-1.2005924E0,-5.313174E-1,1.1257515E0,-5.383115E-1,5.646247E-1,-8.281979E-1,-2.104382E-1,-1.0297372E0,9.899219E-1,-8.402468E-1,-1.2831682E-1,-3.1719396E-1,-6.4379885E-3,-4.719983E-1,-8.777926E-1],"categories":[],"categories_nodes":[],"categories_segments":[],"categories_sizes":[],"default_left":[1,1,1,1,0,1,1,1,0,1,1,1,0,0,0,0,0,1,1,0,0,1,0,0,0,0,0],"id":22,"left_children":[1,3,5,7,-1,9,11,13,-1,15,17,19,-1,-1,-1,-1,-1,21,23,-1,-1,25,-1,-1,-1,-1,-1],"loss_changes":[3.9836662E1,7.965843E0,2.693283E0,4.75953E0,0E0,1.3467789E0,2.2434235E0,3.5752878E0,0E0,1.3475715E0,4.7499466E-1,6.3513107E0,0E0,0E0,0E0,0E0,0E0,3.6056137E-1,6.5370545E-2,0E0,0E0,3.3812714E-1,0E0,0E0,0E0,0E0,0E0],"parents":[2147483647,0,0,1,1,2,2,3,3,5,5,6,6,7,7,9,9,10,10,11,11,17,17,18,18,21,21],"right_children":[2,4,6,8,-1,10,12,14,-1,16,18,20,-1,-1,-1,-1,-1,22,24,-1,-1,26,-1,-1,-1,-1,-1],"split_conditions":[-1.4003232E0,-2.5567797E-1,7.5002015E-3,-1.5971252E0,6.2106144E-2,-1.2628512E0,-1.191221E0,-1.0853904E0,-5.0992545E-2,-1.3279696E0,1.6653023E0,1.0759636E0,-6.0029622E-2,-2.656587E-2,5.6287576E-2,-2.6915574E-2,2.8231237E-2,1.6844488E0,-6.3685054E-1,-5.148686E-2,4.9496096E-2,-1.3106328E0,-6.415841E-3,-1.5859699E-2,-3.2189942E-4,-2.3599915E-2,-4.388963E-2],"split_indices":[0,1,4,0,0,0,0,1,0,0,0,1,0,0,0,0,0,2,2,0,0,1,0,0,0,0,0],"split_type":[0,0,0,0,0,0,0,0,0,0,0,0,0,0,0,0,0,0,0,0,0,0,0,0,0,0,0],"sum_hessian":[1.2840306E2,1.5709136E1,1.12693924E2,6.2180495E0,9.491087E0,5.9099022E1,5.35949E1,3.677261E0,2.5407887E0,2.461505E0,5.663752E1,5.067792E0,4.8527107E1,1.3871397E0,2.2901213E0,1.4033785E0,1.0581264E0,5.45421E1,2.095419E0,3.6522796E0,1.4155122E0,5.3421852E1,1.1202463E0,1.0113149E0,1.084104E0,6.1984897E0,4.7223362E1],"tree_param":{"num_deleted":"0","num_feature":"7","num_nodes":"27","size_leaf_vector":"0"}},{"base_weights":[-7.3162717E-1,4.561981E-1,-9.182775E-1,1.3805313E0,-7.764408E-1,-1.0519893E0,-7.2201204E-1,-1.01481214E-1,-9.2470145E-1,-4.2189178E-1,-8.2169324E-1,3.188983E-1,-5.431872E-1,-8.772731E-1,-4.5814735E-1,-6.2448186E-1,1.4929904E-1,-9.138777E-1,-1.4863229E-1,-1.1089066E-1,-8.270859E-1,-6.7851293E-1,-6.475566E-2,-7.865362E-1,6.016323E-1],"categories":[],"categories_nodes":[],"categories_segments":[],"categories_sizes":[],"default_left":[1,1,1,0,1,0,1,0,0,1,1,0,1,1,1,1,0,0,0,1,0,0,0,0,0],"id":23,"left_children":[1,3,5,-1,7,-1,9,-1,-1,11,13,-1,15,17,19,21,-1,-1,-1,23,-1,-1,-1,-1,-1],"loss_changes":[2.8338318E1,2.1317236E1,2.105133E0,0E0,7.3219585E-1,0E0,1.0720081E0,0E0,0E0,1.42028E0,2.9603958E-1,0E0,7.854347E-1,6.3414955E-1,7.633027E-1,2.9468775E-1,0E0,0E0,0E0,2.6842082E0,0E0,0E0,0E0,0E0,0E0],"parents":[2147483647,0,0,1,1,2,2,4,4,6,6,9,9,10,10,12,12,13,13,14,14,15,15,19,19],"right_children":[2,4,6,-1,8,-1,10,-1,-1,12,14,-1,16,18,20,22,-1,-1,-1,24,-1,-1,-1,-1,-1],"split_conditions":[-1.3589497E0,7.5002015E-3,3.4670648E-1,6.902657E-2,-8.533795E-1,-5.2599467E-2,-9.950332E-1,-5.074061E-3,-4.6235073E-2,-1.4077277E0,1.188824E0,1.5944915E-2,1.6202995E0,1.5432422E0,5.444635E-1,1.3473262E0,7.4649523E-3,-4.5693886E-2,-7.4316147E-3,-1.7190187E-1,-4.1354295E-2,-3.392565E-2,-3.2377832E-3,-3.9326813E-2,3.0081615E-2],"split_indices":[3,4,1,0,6,0,2,0,0,6,3,0,1,2,2,3,0,0,0,2,0,0,0,0,0],"split_type":[0,0,0,0,0,0,0,0,0,0,0,0,0,0,0,0,0,0,0,0,0,0,0,0,0],"sum_hessian":[1.24928734E2,1.6768898E1,1.08159836E2,9.514311E0,7.2545867E0,6.1738544E1,4.642129E1,1.609911E0,5.6446757E0,1.2878653E1,3.354264E1,1.5828111E0,1.1295841E1,2.7868874E1,5.6737666E0,1.0196967E1,1.0988741E0,2.6293736E1,1.5751381E0,3.5927358E0,2.0810306E0,9.105755E0,1.0912127E0,1.7907721E0,1.8019638E0],"tree_param":{"num_deleted":"0","num_feature":"7","num_nodes":"25","size_leaf_vector":"0"}},{"base_weights":[-7.1450984E-1,7.204813E-1,-9.260936E-1,-1.1742171E-1,1.2270429E0,-7.489837E-1,-1.1065361E0,5.437239E-1,-9.78915E-1,-2.2521501E-2,-7.8013E-1,-3.6049291E-1,-1.1770152E0,-4.9143466E-1,1.1220216E0,5.5545735E-1,-5.1516604E-1,-8.3376354E-1,-4.9538347E-1,-9.9507165E-1,9.6673065E-1,-8.4921026E-1,-9.962797E-2,-7.375323E-1,-1.3327478E-1,-4.2773727E-1,-8.92954E-1,-8.6678797E-1,-4.455255E-2,2.73475E-1,-5.9367764E-1],"categories":[],"categories_nodes":[],"categories_segments":[],"categories_sizes":[],"default_left":[1,1,1,1,0,1,1,1,0,1,1,1,0,0,0,0,0,1,1,0,0,1,0,1,1,0,0,0,0,0,0],"id":24,"left_children":[1,3,5,7,-1,9,11,13,-1,15,17,19,-1,-1,-1,-1,-1,21,23,-1,-1,25,-1,27,29,-1,-1,-1,-1,-1,-1],"loss_changes":[3.7952217E1,7.0805616E0,2.6054E0,4.559162E0,0E0,1.2795029E0,2.2643394E0,3.3308773E0,0E0,1.2504007E0,4.2598724E-1,5.893363E0,0E0,0E0,0E0,0E0,0E0,4.2304993E-1,8.812947E-1,0E0,0E0,4.2394638E-1,0E0,5.4129195E-1,1.2293227E0,0E0,0E0,0E0,0E0,0E0,0E0],"parents":[2147483647,0,0,1,1,2,2,3,3,5,5,6,6,7,7,9,9,10,10,11,11,17,17,18,18,21,21,23,23,24,24],"right_children":[2,4,6,8,-1,10,12,14,-1,16,18,20,-1,-1,-1,-1,-1,22,24,-1,-1,26,-1,28,30,-1,-1,-1,-1,-1,-1],"split_conditions":[-1.4003232E0,-2.5567797E-1,7.5002015E-3,-1.5971252E0,6.1352145E-2,-1.2628512E0,-1.191221E0,-1.0853904E0,-4.894575E-2,-2.4995312E-2,1.1501441E0,1.0759636E0,-5.885076E-2,-2.4571734E-2,5.610108E-2,2.7772868E-2,-2.5758302E-2,1.6637845E0,6.324666E-2,-4.9753584E-2,4.8336532E-2,-1.3106328E0,-4.9813986E-3,1.6653023E0,1.5676248E0,-2.1386864E-2,-4.46477E-2,-4.3339398E-2,-2.2276274E-3,1.367375E-2,-2.9683882E-2],"split_indices":[0,1,4,0,0,0,0,1,0,5,0,1,0,0,0,0,0,2,5,0,0,1,0,0,0,0,0,0,0,0,0],"split_type":[0,0,0,0,0,0,0,0,0,0,0,0,0,0,0,0,0,0,0,0,0,0,0,0,0,0,0,0,0,0,0],"sum_hessian":[1.2180115E2,1.5342301E1,1.0645885E2,6.070045E0,9.272256E0,5.632497E1,5.0133877E1,3.643065E0,2.42698E0,2.3864377E0,5.3938534E1,4.855181E0,4.5278694E1,1.3595899E0,2.283475E0,1.0394437E0,1.3469939E0,4.376675E1,1.01717825E1,3.4539988E0,1.4011824E0,4.2711327E1,1.0554246E0,5.4742665E0,4.6975155E0,5.029556E0,3.768177E1,4.4023256E0,1.0719413E0,2.7096467E0,1.9878685E0],"tree_param":{"num_deleted":"0","num_feature":"7","num_nodes":"31","size_leaf_vector":"0"}},{"base_weights":[-6.9972837E-1,-8.142334E-1,-5.167846E-1,-6.7071074E-1,-9.478592E-1,-2.9741055E-1,-6.2533957E-1,-9.015369E-1,-4.8328882E-1,-1.0104636E0,-5.087224E-1,-4.0041763E-1,5.556365E-1,-2.5506604E-1,-7.056769E-1,-3.8912332E-1,-9.6257436E-1,-1.664802E-1,-6.6578686E-1,-4.942669E-1,-1.048071E0,6.571266E-2,-6.447809E-1,-1.871815E-1,-6.9540423E-1,-5.6217766E-1,3.0839327E-1,-7.556109E-1,-1.6598735E-2,-7.303355E-1,1.9326945E-1,-7.235975E-1,1.0301443E-2,-8.3337E-2,-7.672225E-1,-6.676574E-1,-1.6120563E-1,-8.838939E-2,-7.6186067E-1,9.718166E-2,-7.5140285E-1,-1.5205915E-1,-9.4242424E-1,-9.557457E-2,5.9228176E-1,-7.8586423E-1,-2.579874E-1,4.152504E-1,-2.4214996E-1,-3.0153504E-1,1.5627524E-1,-6.649957E-2,-8.32517E-1,-1.5938441E-1,3.6769077E-1,1.09631404E-1,-3.448214E-1,-2.7586153E-1,-8.0805176E-1],"categories":[],"categories_nodes":[],"categories_segments":[],"categories_sizes":[],"default_left":[1,1,1,1,1,1,1,1,1,1,1,1,0,1,1,1,0,1,1,1,0,0,1,1,1,0,1,1,0,0,0,0,1,1,1,0,0,0,0,1,0,1,0,0,0,1,0,0,0,0,0,0,0,0,0,0,0,0,0],"id":25,"left_children":[1,3,5,7,9,11,13,15,17,19,21,23,-1,25,27,29,-1,31,33,35,-1,-1,37,39,41,-1,43,45,-1,-1,-1,-1,47,49,51,-1,-1,-1,-1,53,-1,55,-1,-1,-1,57,-1,-1,-1,-1,-1,-1,-1,-1,-1,-1,-1,-1,-1],"loss_changes":[2.0811539E0,7.397423E-1,9.7412205E-1,1.2082405E0,4.4049835E-1,1.807058E0,7.624388E-1,1.2187958E-1,1.2263002E0,5.2215576E-2,5.3836703E-1,9.18494E-1,0E0,1.4217957E0,8.6374855E-1,8.1044525E-1,0E0,9.713043E-1,7.833276E-1,1.1685711E-1,0E0,0E0,2.7292275E-1,1.8451003E0,7.460921E-1,0E0,4.2253396E-1,1.5441799E-1,0E0,0E0,0E0,0E0,9.6082413E-1,2.1698475E-1,4.978776E-1,0E0,0E0,0E0,0E0,6.2973684E-1,0E0,2.024248E-1,0E0,0E0,0E0,2.4629593E-2,0E0,0E0,0E0,0E0,0E0,0E0,0E0,0E0,0E0,0E0,0E0,0E0,0E0],"parents":[2147483647,0,0,1,1,2,2,3,3,4,4,5,5,6,6,7,7,8,8,9,9,10,10,11,11,13,13,14,14,15,15,17,17,18,18,19,19,22,22,23,23,24,24,26,26,27,27,32,32,33,33,34,34,39,39,41,41,45,45],"right_children":[2,4,6,8,10,12,14,16,18,20,22,24,-1,26,28,30,-1,32,34,36,-1,-1,38,40,42,-1,44,46,-1,-1,-1,-1,48,50,52,-1,-1,-1,-1,54,-1,56,-1,-1,-1,58,-1,-1,-1,-1,-1,-1,-1,-1,-1,-1,-1,-1,-1],"split_conditions":[4.3708152E-1,7.5002015E-3,-5.841247E-1,-9.057592E-2,1.1885035E0,-6.421992E-1,-1.0604705E0,-1.2154534E0,-8.622336E-1,-1.3979888E0,-1.0962597E0,8.29589E-2,2.7781827E-2,6.744167E-1,1.5432422E0,-1.4496498E0,-4.812872E-2,-1.5911431E0,1.9406453E-1,-1.5805242E0,-5.240355E-2,3.2856332E-3,1.3090458E0,-9.079344E-1,-7.707601E-1,-2.8108884E-2,-1.3256634E0,1.4009538E0,-8.2993676E-4,-3.6516774E-2,9.663473E-3,-3.6179878E-2,6.565623E-1,-1.6880344E-1,-1.4552433E0,-3.338287E-2,-8.060282E-3,-4.4194697E-3,-3.8093034E-2,-7.7461314E-1,-3.7570145E-2,1.002524E0,-4.7121212E-2,-4.778729E-3,2.9614089E-2,4.9408734E-1,-1.2899371E-2,2.076252E-2,-1.2107498E-2,-1.5076752E-2,7.813762E-3,-3.3249785E-3,-4.1625854E-2,-7.969221E-3,1.8384539E-2,5.4815705E-3,-1.724107E-2,-1.3793076E-2,-4.0402588E-2],"split_indices":[1,4,6,5,2,6,2,2,1,2,5,2,0,5,2,2,0,1,5,2,0,0,2,6,5,0,2,5,0,0,0,0,5,6,6,0,0,0,0,2,0,2,0,0,0,1,0,0,0,0,0,0,0,0,0,0,0,0,0],"split_type":[0,0,0,0,0,0,0,0,0,0,0,0,0,0,0,0,0,0,0,0,0,0,0,0,0,0,0,0,0,0,0,0,0,0,0,0,0,0,0,0,0,0,0,0,0,0,0,0,0,0,0,0,0,0,0,0,0,0,0],"sum_hessian":[1.1843562E2,7.072065E1,4.7714973E1,3.699981E1,3.3720837E1,1.7033152E1,3.0681824E1,1.4872659E1,2.212715E1,2.8374657E1,5.34618E0,1.5671403E1,1.361749E0,6.2144504E0,2.4467373E1,2.3680322E0,1.2504627E1,8.786463E0,1.3340688E1,2.88725E0,2.5487408E1,1.1227953E0,4.2233844E0,1.0044851E1,5.626551E0,4.0236487E0,2.1908016E0,2.272412E1,1.7432526E0,1.3330181E0,1.035014E0,1.3714005E0,7.415062E0,2.248906E0,1.1091782E1,1.2380943E0,1.6491557E0,1.0393051E0,3.1840794E0,7.2291675E0,2.8156843E0,2.2634475E0,3.3631036E0,1.1779455E0,1.0128561E0,2.087573E1,1.8483895E0,2.5998523E0,4.81521E0,1.0417908E0,1.2071149E0,1.1175033E0,9.974278E0,3.921035E0,3.3081324E0,1.1429967E0,1.1204507E0,1.4303716E0,1.9445358E1],"tree_param":{"num_deleted":"0","num_feature":"7","num_nodes":"59","size_leaf_vector":"0"}},{"base_weights":[-6.8154526E-1,7.4050885E-1,-8.92438E-1,-6.616968E-1,1.0004656E0,-3.2206455E-1,-9.425734E-1,3.436577E-1,1.2108911E0,-7.323832E-1,8.91688E-1,-9.502628E-1,-2.178681E-1,1.1047571E0,-8.1394887E-1,-7.3191956E-2,-8.7355596E-1,-9.618323E-1,-4.838537E-1,-6.457593E-3,-6.348957E-1],"categories":[],"categories_nodes":[],"categories_segments":[],"categories_sizes":[],"default_left":[1,1,1,0,1,1,1,1,0,1,0,1,0,0,0,0,0,0,1,0,0],"id":26,"left_children":[1,3,5,-1,7,9,11,13,-1,15,-1,17,-1,-1,-1,-1,-1,-1,19,-1,-1],"loss_changes":[3.580242E1,6.377493E0,2.627449E0,0E0,1.4670534E0,5.5339804E0,3.15094E-1,5.042274E0,0E0,6.687703E-1,0E0,3.3302307E-2,0E0,0E0,0E0,0E0,0E0,0E0,3.0229795E-1,0E0,0E0],"parents":[2147483647,0,0,1,1,2,2,4,4,5,5,6,6,7,7,9,9,11,11,18,18],"right_children":[2,4,6,-1,8,10,12,14,-1,16,-1,18,-1,-1,-1,-1,-1,-1,20,-1,-1],"split_conditions":[-1.411538E0,-1.0853904E0,-1.1807299E0,-3.308484E-2,-2.5567797E-1,1.0759636E0,1.6913369E0,-1.5866339E0,6.0544558E-2,-1.2257855E0,4.45844E-2,1.6653023E0,-1.0893405E-2,5.5237856E-2,-4.0697444E-2,-3.6595978E-3,-4.36778E-2,-4.8091616E-2,1.6978614E0,-3.2287964E-4,-3.1744786E-2],"split_indices":[0,1,0,0,1,1,2,0,0,2,0,0,0,0,0,0,0,0,0,0,0],"split_type":[0,0,0,0,0,0,0,0,0,0,0,0,0,0,0,0,0,0,0,0,0],"sum_hessian":[1.161773E2,1.4679796E1,1.01497505E2,2.0541747E0,1.2625622E1,8.800554E0,9.2696945E1,3.70239E0,8.923232E0,6.8735065E0,1.9270473E0,9.141576E1,1.2811904E0,2.261295E0,1.4410949E0,1.4802223E0,5.3932843E0,8.8166534E1,3.2492206E0,1.0315546E0,2.217666E0],"tree_param":{"num_deleted":"0","num_feature":"7","num_nodes":"21","size_leaf_vector":"0"}},{"base_weights":[-6.6594917E-1,7.230606E-1,-8.726365E-1,8.66035E-1,1.1937445E-1,4.7651723E-1,-1.1084434E0,4.914582E-1,1.0035483E0,4.407684E-1,-2.976487E-1,7.847099E-1,2.2526132E-1,-4.2957652E-1,-1.162971E0,8.374484E-1,-1.7764021E-1,-2.2701357E-2,9.573083E-1,-7.053775E-1,4.612282E-1,1.3700014E-1,-6.609548E-1,1.0507921E0,2.8369114E-1,-3.1961218E-2,6.9905055E-1,-8.5664645E-2,3.0117148E-1,4.0191352E-2,-9.461369E-1,3.8735092E-1,-3.319782E-1,8.586332E-1,-8.959693E-3],"categories":[],"categories_nodes":[],"categories_segments":[],"categories_sizes":[],"default_left":[1,1,1,1,1,1,1,1,0,0,0,1,1,1,0,0,0,0,1,0,1,1,1,0,0,1,1,0,0,0,0,0,0,0,0],"id":27,"left_children":[1,3,5,7,9,11,13,15,-1,-1,-1,17,19,21,-1,-1,-1,-1,23,-1,25,27,29,-1,-1,31,33,-1,-1,-1,-1,-1,-1,-1,-1],"loss_changes":[3.3384537E1,1.2192945E0,3.2266907E1,1.3676548E-1,6.79945E-1,1.0267279E0,2.6550598E0,1.3627388E0,0E0,0E0,0E0,9.3835115E-1,2.5135405E0,1.1290653E0,0E0,0E0,0E0,0E0,4.4607162E-2,0E0,1.0256104E0,1.4004882E-1,1.1970713E0,0E0,0E0,5.989683E-1,6.6465926E-1,0E0,0E0,0E0,0E0,0E0,0E0,0E0,0E0],"parents":[2147483647,0,0,1,1,2,2,3,3,4,4,5,5,6,6,7,7,11,11,12,12,13,13,18,18,20,20,21,21,22,22,25,25,26,26],"right_children":[2,4,6,8,10,12,14,16,-1,-1,-1,18,20,22,-1,-1,-1,-1,24,-1,26,28,30,-1,-1,32,34,-1,-1,-1,-1,-1,-1,-1,-1],"split_conditions":[-1.411538E0,-1.4860623E0,-1.3589497E0,-7.298403E-1,3.8457292E-1,-5.8764434E-1,-1.197371E0,-1.1879008E0,5.0177414E-2,2.203842E-2,-1.4882435E-2,-1.427086E0,-1.3712639E-1,-1.032918E0,-5.814855E-2,4.1872423E-2,-8.882011E-3,-1.1350679E-3,8.263613E-1,-3.5268877E-2,-1.9907577E-1,8.6007905E-1,-6.560799E-1,5.2539606E-2,1.4184557E-2,-1.546804E0,1.2749429E0,-4.283232E-3,1.5058574E-2,2.0095676E-3,-4.7306847E-2,1.9367546E-2,-1.659891E-2,4.293166E-2,-4.4798464E-4],"split_indices":[0,0,3,2,3,6,0,2,0,0,0,6,6,2,0,0,0,0,0,0,5,3,5,0,0,3,5,0,0,0,0,0,0,0,0],"split_type":[0,0,0,0,0,0,0,0,0,0,0,0,0,0,0,0,0,0,0,0,0,0,0,0,0,0,0,0,0,0,0,0,0,0,0],"sum_hessian":[1.13087875E2,1.4324434E1,9.876344E1,1.1230156E1,3.0942786E0,1.4541928E1,8.422151E1,4.243915E0,6.9862404E0,1.7153456E0,1.3789328E0,5.5774417E0,8.964486E0,6.921936E0,7.7299576E1,2.6315408E0,1.6123745E0,1.1352488E0,4.4421926E0,1.4108548E0,7.553632E0,2.1253877E0,4.7965484E0,3.4091504E0,1.0330424E0,2.7390578E0,4.814574E0,1.1049495E0,1.0204381E0,1.6352372E0,3.1613111E0,1.020993E0,1.7180648E0,3.755384E0,1.0591899E0],"tree_param":{"num_deleted":"0","num_feature":"7","num_nodes":"35","size_leaf_vector":"0"}},{"base_weights":[-6.528588E-1,5.108881E-1,-8.531026E-1,1.3627813E0,-7.262197E-1,-9.9014133E-1,-6.554304E-1,-1.07614785E-1,-8.6051726E-1,-6.920516E-1,-4.6045855E-2,-7.588567E-1,-2.980591E-1,3.8849652E-1,-3.949376E-1,-1.2337838E-1,-7.7546585E-1,1.5119058E-1,-5.262098E-1,-7.9109895E-1,-1.9717903E-1,3.113804E-1,-1.0323186E-1,-8.562495E-3,-6.601917E-1],"categories":[],"categories_nodes":[],"categories_segments":[],"categories_sizes":[],"default_left":[1,1,1,0,1,0,1,0,0,1,1,1,1,0,0,0,1,1,1,0,0,0,0,0,0],"id":28,"left_children":[1,3,5,-1,7,-1,9,-1,-1,11,13,15,17,-1,-1,-1,19,21,23,-1,-1,-1,-1,-1,-1],"loss_changes":[2.6204212E1,1.8757236E1,1.9168472E0,0E0,5.3275895E-1,0E0,8.995857E-1,0E0,0E0,8.082466E-1,6.7456615E-1,2.5217056E-1,8.323535E-1,0E0,0E0,0E0,1.3265228E-1,1.646209E-1,3.476503E-1,0E0,0E0,0E0,0E0,0E0,0E0],"parents":[2147483647,0,0,1,1,2,2,4,4,6,6,9,9,10,10,11,11,12,12,16,16,17,17,18,18],"right_children":[2,4,6,-1,8,-1,10,-1,-1,12,14,16,18,-1,-1,-1,20,22,24,-1,-1,-1,-1,-1,-1],"split_conditions":[-1.3589497E0,7.5002015E-3,3.4670648E-1,6.813907E-2,-8.533795E-1,-4.9507067E-2,1.6335082E0,-5.3807395E-3,-4.3025862E-2,1.188824E0,-4.4316E-1,3.8668007E-1,-5.9644353E-1,1.9424826E-2,-1.9746881E-2,-6.168919E-3,1.5619867E0,-1.1152051E-1,7.6729804E-1,-3.955495E-2,-9.858952E-3,1.5569019E-2,-5.161593E-3,-4.2812477E-4,-3.3009585E-2],"split_indices":[3,4,1,0,6,0,1,0,0,3,3,1,6,0,0,0,5,5,1,0,0,0,0,0,0],"split_type":[0,0,0,0,0,0,0,0,0,0,0,0,0,0,0,0,0,0,0,0,0,0,0,0,0],"sum_hessian":[1.0957811E2,1.5859124E1,9.371899E1,9.331625E0,6.5274997E0,5.2980564E1,4.0738422E1,1.4856367E0,5.041863E0,3.830105E1,2.4373736E0,3.1956459E1,6.3445888E0,1.0348985E0,1.4024752E0,1.0286295E0,3.092783E1,2.250489E0,4.0940995E0,2.9755432E1,1.1723969E0,1.2436125E0,1.0068765E0,1.0605416E0,3.0335581E0],"tree_param":{"num_deleted":"0","num_feature":"7","num_nodes":"25","size_leaf_vector":"0"}},{"base_weights":[-6.371102E-1,7.304423E-1,-8.519509E-1,8.6649144E-1,1.4360398E-1,4.439396E-1,-1.0868441E0,5.0400186E-1,9.9645674E-1,4.501538E-1,-2.7189702E-1,1.3339036E0,-1.0330513E0,-3.923829E-1,-1.1451592E0,8.357454E-1,-1.492327E-1,1.557801E-1,-6.264336E-1,-6.703333E-2,3.0923444E-1,5.626066E-2,-9.166405E-1],"categories":[],"categories_nodes":[],"categories_segments":[],"categories_sizes":[],"default_left":[1,1,1,1,1,1,1,1,0,0,0,0,0,1,0,0,0,1,1,0,0,0,0],"id":29,"left_children":[1,3,5,7,9,11,13,15,-1,-1,-1,-1,-1,17,-1,-1,-1,19,21,-1,-1,-1,-1],"loss_changes":[3.232221E1,1.08809E0,2.900647E1,6.9252014E-2,6.391304E-1,2.1211973E1,2.7750092E0,1.2569615E0,0E0,0E0,0E0,0E0,0E0,1.0840685E0,0E0,0E0,0E0,1.2677512E-1,1.1585767E0,0E0,0E0,0E0,0E0],"parents":[2147483647,0,0,1,1,2,2,3,3,4,4,5,5,6,6,7,7,13,13,17,17,18,18],"right_children":[2,4,6,8,10,12,14,16,-1,-1,-1,-1,-1,18,-1,-1,-1,20,22,-1,-1,-1,-1],"split_conditions":[-1.411538E0,-1.4860623E0,-1.3589497E0,-7.298403E-1,3.8457292E-1,7.5002015E-3,-1.197371E0,-1.1879008E0,4.9822837E-2,2.250769E-2,-1.3594851E-2,6.6695176E-2,-5.1652562E-2,-1.032918E0,-5.725796E-2,4.178727E-2,-7.461635E-3,8.6007905E-1,-6.560799E-1,-3.3516665E-3,1.5461722E-2,2.813033E-3,-4.5832027E-2],"split_indices":[0,0,3,2,3,4,0,2,0,0,0,0,0,2,0,0,0,3,5,0,0,0,0],"split_type":[0,0,0,0,0,0,0,0,0,0,0,0,0,0,0,0,0,0,0,0,0,0,0],"sum_hessian":[1.0689401E2,1.418711E1,9.27069E1,1.1130207E1,3.0569034E0,1.4088972E1,7.8617935E1,4.224769E0,6.9054375E0,1.7110895E0,1.3458139E0,8.852036E0,5.236936E0,6.6889977E0,7.192893E1,2.61656E0,1.6082091E0,2.1015167E0,4.587481E0,1.086747E0,1.0147697E0,1.6088634E0,2.9786177E0],"tree_param":{"num_deleted":"0","num_feature":"7","num_nodes":"23","size_leaf_vector":"0"}},{"base_weights":[-6.267054E-1,7.0898926E-1,-8.416764E-1,8.4264714E-1,1.3896747E-1,-6.5331185E-1,-1.0415498E0,4.8947605E-1,9.697417E-1,-2.4404255E-1,3.907006E-1,4.621937E-3,-6.879815E-1,-2.786287E-1,-1.1222929E0,8.153781E-1,-1.445933E-1,4.6261734E-1,-4.6581188E-1,-7.425731E-1,-4.068998E-1,1.9766901E-1,-5.215434E-1,-7.572085E-1,-1.24304205E-1,-6.4372265E-1,-6.919769E-2,5.5886406E-2,-7.705938E-1,-7.743882E-1,-1.4849532E-1,-7.989102E-2,-7.716158E-1,2.9915032E-1,-5.173422E-1],"categories":[],"categories_nodes":[],"categories_segments":[],"categories_sizes":[],"default_left":[1,1,1,1,1,1,1,1,0,0,0,1,1,1,0,0,0,0,0,1,1,0,1,1,0,1,1,0,0,0,0,0,0,0,0],"id":30,"left_children":[1,3,5,7,9,11,13,15,-1,-1,-1,17,19,21,-1,-1,-1,-1,-1,23,25,-1,27,29,-1,31,33,-1,-1,-1,-1,-1,-1,-1,-1],"loss_changes":[3.0543941E1,1.025835E0,2.719059E0,6.1932564E-2,4.8553473E-1,1.1247311E0,2.2823029E0,1.1888915E0,0E0,0E0,0E0,9.597987E-1,4.146576E-1,7.234713E-1,0E0,0E0,0E0,0E0,0E0,2.4886322E-1,7.399707E-1,0E0,5.932509E-1,2.7017403E-1,0E0,3.4545112E-1,1.0071929E0,0E0,0E0,0E0,0E0,0E0,0E0,0E0,0E0],"parents":[2147483647,0,0,1,1,2,2,3,3,4,4,5,5,6,6,7,7,11,11,12,12,13,13,19,19,20,20,22,22,23,23,25,25,26,26],"right_children":[2,4,6,8,10,12,14,16,-1,-1,-1,18,20,22,-1,-1,-1,-1,-1,24,26,-1,28,30,-1,32,34,-1,-1,-1,-1,-1,-1,-1,-1],"split_conditions":[-1.411538E0,-1.4860623E0,7.5002015E-3,-7.298403E-1,-1.4603767E0,-1.2628512E0,-1.191221E0,-1.1879008E0,4.8487086E-2,-1.2202128E-2,1.9535031E-2,-2.4995312E-2,1.1501441E0,-1.032918E0,-5.6114644E-2,4.0768906E-2,-7.229665E-3,2.3130868E-2,-2.3290595E-2,1.6362319E0,6.324666E-2,9.883451E-3,-6.996858E-1,1.5681543E0,-6.2152105E-3,-1.2504256E0,1.5676248E0,2.7943205E-3,-3.852969E-2,-3.8719412E-2,-7.4247657E-3,-3.994551E-3,-3.858079E-2,1.4957516E-2,-2.586711E-2],"split_indices":[0,0,4,2,0,0,0,2,0,0,0,5,0,2,0,0,0,0,0,2,5,0,5,6,0,5,0,0,0,0,0,0,0,0,0],"split_type":[0,0,0,0,0,0,0,0,0,0,0,0,0,0,0,0,0,0,0,0,0,0,0,0,0,0,0,0,0,0,0,0,0,0,0],"sum_hessian":[1.0329637E2,1.4001539E1,8.929483E1,1.0954639E1,3.0468998E0,4.816852E1,4.112631E1,4.18278E0,6.771859E0,1.2204876E0,1.8264121E0,2.4545534E0,4.571397E1,4.361971E0,3.676434E1,2.5738928E0,1.6088868E0,1.2521379E0,1.2024155E0,3.690454E1,8.80943E0,1.5361696E0,2.8258014E0,3.583162E1,1.0729194E0,4.6454773E0,4.1639524E0,1.0852422E0,1.7405592E0,3.4583405E1,1.2482148E0,1.159289E0,3.4861884E0,2.46793E0,1.696022E0],"tree_param":{"num_deleted":"0","num_feature":"7","num_nodes":"35","size_leaf_vector":"0"}},{"base_weights":[-6.1223865E-1,5.1372933E-1,-8.124864E-1,7.8495514E-1,2.7817616E-1,-9.5751184E-1,-6.0690534E-1,6.574348E-2,9.291922E-1,-6.811349E-1,5.086248E-1,-3.041959E-1,-7.1363014E-1,1.5332131E-1,7.2952265E-1,3.2677555E-1,-4.210574E-1,-7.64531E-1,-3.7656337E-1,3.523962E-1,-2.3247056E-1,8.8948536E-1,9.8069936E-2,-5.774163E-1,-1.858177E-2,-8.0109614E-1,-1.01802886E-1,1.5062323E-1,-6.667729E-1,4.4094837E-1,1.11297764E-1,-3.4136288E-2,-6.6867423E-1,3.1905502E-1,-4.024133E-1,-8.406518E-1,-1.9099195E-1],"categories":[],"categories_nodes":[],"categories_segments":[],"categories_sizes":[],"default_left":[1,1,1,1,1,0,1,0,0,0,1,1,1,1,1,0,1,1,1,1,0,0,0,1,1,1,0,0,0,0,0,0,0,0,0,0,0],"id":31,"left_children":[1,3,5,7,9,-1,11,-1,-1,-1,13,15,17,19,21,-1,23,25,27,29,-1,-1,-1,31,33,35,-1,-1,-1,-1,-1,-1,-1,-1,-1,-1,-1],"loss_changes":[2.3342403E1,8.016038E-1,2.0041084E0,6.517496E-1,2.577763E0,0E0,1.029891E0,0E0,0E0,0E0,5.718148E-1,1.0079827E0,1.8896675E-1,4.356314E-1,4.284389E-1,0E0,6.435281E-1,4.8008633E-1,9.5982367E-1,2.4268031E-2,0E0,0E0,0E0,3.467505E-1,6.392751E-1,3.660097E-1,0E0,0E0,0E0,0E0,0E0,0E0,0E0,0E0,0E0,0E0,0E0],"parents":[2147483647,0,0,1,1,2,2,3,3,4,4,6,6,10,10,11,11,12,12,13,13,14,14,16,16,17,17,18,18,19,19,23,23,24,24,25,25],"right_children":[2,4,6,8,10,-1,12,-1,-1,-1,14,16,18,20,22,-1,24,26,28,30,-1,-1,-1,32,34,36,-1,-1,-1,-1,-1,-1,-1,-1,-1,-1,-1],"split_conditions":[-1.3589497E0,-5.8764434E-1,3.4670648E-1,-1.427086E0,-1.3712639E-1,-4.7875594E-2,-9.950332E-1,3.2871743E-3,4.645961E-2,-3.4056745E-2,1.1783994E-1,-1.4077277E0,1.188824E0,8.13876E-1,1.2749429E0,1.6338779E-2,4.6840435E-1,1.5432422E0,-3.3264047E-1,-7.807174E-1,-1.1623528E-2,4.447427E-2,4.9034967E-3,-9.132139E-1,1.2831833E0,1.3631848E0,-5.0901445E-3,7.531162E-3,-3.3338647E-2,2.204742E-2,5.5648885E-3,-1.7068144E-3,-3.3433713E-2,1.5952751E-2,-2.0120665E-2,-4.2032592E-2,-9.549598E-3],"split_indices":[3,6,1,6,6,0,2,0,0,0,5,6,3,1,5,0,5,2,5,5,0,0,0,6,5,5,0,0,0,0,0,0,0,0,0,0,0],"split_type":[0,0,0,0,0,0,0,0,0,0,0,0,0,0,0,0,0,0,0,0,0,0,0,0,0,0,0,0,0,0,0,0,0,0,0,0,0],"sum_hessian":[1.0067538E2,1.4964787E1,8.571059E1,5.8715944E0,9.093192E0,4.8112465E1,3.759812E1,1.2240236E0,4.6475706E0,1.3824868E0,7.7107053E0,1.0804114E1,2.6794008E1,3.6055064E0,4.105199E0,1.4076283E0,9.396485E0,2.2176867E1,4.6171412E0,2.4353766E0,1.17013E0,2.949407E0,1.1557915E0,6.4543543E0,2.9421315E0,2.0819399E1,1.3574679E0,1.8100462E0,2.8070948E0,1.1749275E0,1.260449E0,1.125867E0,5.328487E0,1.6550406E0,1.287091E0,1.91969E1,1.6224998E0],"tree_param":{"num_deleted":"0","num_feature":"7","num_nodes":"37","size_leaf_vector":"0"}},{"base_weights":[-5.962951E-1,7.1150064E-1,-8.1597334E-1,8.394783E-1,1.5724006E-1,-6.248396E-1,-1.0226535E0,4.9342385E-1,9.612758E-1,4.176919E-1,-2.0435153E-1,1.8850341E-2,-6.5964556E-1,-2.529991E-1,-1.1080154E0,8.090797E-1,-1.2822004E-1,4.5848858E-1,-4.450291E-1,-6.787911E-1,-1.2349577E-1,1.9840668E-1,-4.9124607E-1,-8.049036E-1,-5.428429E-1,6.8149865E-2,-7.4439883E-1,-6.2518144E-1,-4.812459E-2],"categories":[],"categories_nodes":[],"categories_segments":[],"categories_sizes":[],"default_left":[1,1,1,1,1,1,1,1,0,0,0,1,1,1,0,0,0,0,0,1,0,0,1,0,1,0,0,0,0],"id":32,"left_children":[1,3,5,7,9,11,13,15,-1,-1,-1,17,19,21,-1,-1,-1,-1,-1,23,-1,-1,25,-1,27,-1,-1,-1,-1],"loss_changes":[2.9130169E1,9.196515E-1,2.7404556E0,2.364254E-2,4.6315804E-1,1.0657978E0,2.3168793E0,1.1104426E0,0E0,0E0,0E0,8.941899E-1,3.7431526E-1,6.6128993E-1,0E0,0E0,0E0,0E0,0E0,2.9807854E-1,0E0,0E0,5.774166E-1,0E0,9.3541574E-1,0E0,0E0,0E0,0E0],"parents":[2147483647,0,0,1,1,2,2,3,3,4,4,5,5,6,6,7,7,11,11,12,12,13,13,19,19,22,22,24,24],"right_children":[2,4,6,8,10,12,14,16,-1,-1,-1,18,20,22,-1,-1,-1,-1,-1,24,-1,-1,26,-1,28,-1,-1,-1,-1],"split_conditions":[-1.411538E0,-1.4860623E0,7.5002015E-3,-7.298403E-1,3.2453904E-1,-1.2628512E0,-1.191221E0,-1.1879008E0,4.8063792E-2,2.0884594E-2,-1.0217576E-2,-2.4995312E-2,1.6653023E0,-1.032918E0,-5.540077E-2,4.0453985E-2,-6.411002E-3,2.2924429E-2,-2.2251455E-2,-4.8000026E-2,-6.174789E-3,9.920334E-3,-6.996858E-1,-4.0245183E-2,1.1848738E0,3.4074932E-3,-3.721994E-2,-3.125907E-2,-2.4062295E-3],"split_indices":[0,0,4,2,5,0,0,2,0,0,0,5,0,2,0,0,0,0,0,5,0,0,5,0,0,0,0,0,0],"split_type":[0,0,0,0,0,0,0,0,0,0,0,0,0,0,0,0,0,0,0,0,0,0,0,0,0,0,0,0,0],"sum_hessian":[9.8374084E1,1.3825978E1,8.45481E1,1.0814369E1,3.011609E0,4.601632E1,3.8531784E1,4.1303325E0,6.684037E0,1.6604505E0,1.3511587E0,2.3840935E0,4.3632225E1,4.242623E0,3.428916E1,2.5393796E0,1.5909526E0,1.2299957E0,1.1540978E0,4.1870995E1,1.761232E0,1.5234225E0,2.7192006E0,1.9168571E1,2.2702423E1,1.0748599E0,1.6443406E0,1.9237E1,3.4654245E0],"tree_param":{"num_deleted":"0","num_feature":"7","num_nodes":"29","size_leaf_vector":"0"}},{"base_weights":[-5.819921E-1,6.908887E-1,-7.9883975E-1,-6.4424676E-1,9.5391434E-1,4.8485804E-1,-1.0514462E0,3.212022E-1,1.1598989E0,7.413309E-1,2.5857538E-1,-3.4223115E-1,-1.1165704E0,1.0276736E0,-7.614422E-1,2.6081754E-3,8.92853E-1,-6.2192625E-1,4.6425983E-1,-9.721408E-1,8.6465645E-1,5.908333E-1,-1.3189903E-1,1.682812E-1,7.220545E-1],"categories":[],"categories_nodes":[],"categories_segments":[],"categories_sizes":[],"default_left":[1,1,1,0,1,1,1,1,0,1,1,1,0,0,0,0,0,0,1,0,0,1,0,0,0],"id":33,"left_children":[1,3,5,-1,7,9,11,13,-1,15,17,19,-1,-1,-1,-1,-1,-1,21,-1,-1,23,-1,-1,-1],"loss_changes":[2.7305534E1,5.7574954E0,2.7515366E1,0E0,1.2745104E0,6.427345E-1,2.846489E0,4.2143E0,0E0,6.9207215E-1,1.9502208E0,6.4062347E0,0E0,0E0,0E0,0E0,0E0,0E0,6.8230724E-1,0E0,0E0,2.549405E-1,0E0,0E0,0E0],"parents":[2147483647,0,0,1,1,2,2,4,4,5,5,6,6,7,7,9,9,10,10,11,11,18,18,21,21],"right_children":[2,4,6,-1,8,10,12,14,-1,16,18,20,-1,-1,-1,-1,-1,-1,22,-1,-1,24,-1,-1,-1],"split_conditions":[-1.411538E0,-1.0853904E0,-1.3589497E0,-3.221234E-2,-2.5567797E-1,-5.8764434E-1,-1.197371E0,-1.5866339E0,5.7994943E-2,-1.427086E0,-1.3712639E-1,9.1885006E-1,-5.582852E-2,5.138368E-2,-3.807211E-2,1.3040878E-4,4.4642653E-2,-3.1096313E-2,8.13876E-1,-4.860704E-2,4.3232825E-2,-3.2876518E-1,-6.5949517E-3,8.41406E-3,3.6102723E-2],"split_indices":[0,1,3,0,1,6,0,0,0,6,6,1,0,0,0,0,0,0,1,0,0,0,0,0,0],"split_type":[0,0,0,0,0,0,0,0,0,0,0,0,0,0,0,0,0,0,0,0,0,0,0,0,0],"sum_hessian":[9.592599E1,1.3644958E1,8.228103E1,2.0071523E0,1.1637806E1,1.3377862E1,6.890317E1,3.4868317E0,8.150974E0,5.2037306E0,8.174131E0,6.3210297E0,6.258214E1,2.140705E0,1.3461266E0,1.0588214E0,4.144909E0,1.1646712E0,7.00946E0,4.2811036E0,2.039926E0,5.7892485E0,1.2202113E0,1.9126502E0,3.8765984E0],"tree_param":{"num_deleted":"0","num_feature":"7","num_nodes":"25","size_leaf_vector":"0"}},{"base_weights":[-5.7239455E-1,6.7554146E-1,-7.8721696E-1,8.000395E-1,1.4384435E-1,4.675586E-1,-1.0424058E0,4.670841E-1,9.168248E-1,4.3065393E-1,-2.5284714E-1,1.2955744E0,-9.913629E-1,-3.3337888E-1,-1.1086488E0,7.76408E-1,-1.302613E-1,1.6487184E-1,-5.605574E-1,-6.6802114E-1,-1.8501975E-1],"categories":[],"categories_nodes":[],"categories_segments":[],"categories_sizes":[],"default_left":[1,1,1,1,1,1,1,1,0,0,0,0,0,1,0,0,0,0,1,0,0],"id":34,"left_children":[1,3,5,7,9,11,13,15,-1,-1,-1,-1,-1,17,-1,-1,-1,-1,19,-1,-1],"loss_changes":[2.564895E1,8.313637E-1,2.6229744E1,1.3720036E-2,5.5623955E-1,1.853126E1,2.7827072E0,1.0231484E0,0E0,0E0,0E0,0E0,0E0,9.034136E-1,0E0,0E0,0E0,0E0,8.417082E-2,0E0,0E0],"parents":[2147483647,0,0,1,1,2,2,3,3,4,4,5,5,6,6,7,7,13,13,18,18],"right_children":[2,4,6,8,10,12,14,16,-1,-1,-1,-1,-1,18,-1,-1,-1,-1,20,-1,-1],"split_conditions":[-1.411538E0,-1.4860623E0,-1.3589497E0,-7.298403E-1,3.8457292E-1,7.5002015E-3,-1.197371E0,-1.1879008E0,4.5841243E-2,2.1532698E-2,-1.2642357E-2,6.477872E-2,-4.9568146E-2,-1.032918E0,-5.543244E-2,3.88204E-2,-6.513065E-3,8.243592E-3,2.6411614E-1,-3.3401057E-2,-9.250987E-3],"split_indices":[0,0,3,2,3,4,0,2,0,0,0,0,0,2,0,0,0,0,6,0,0],"split_type":[0,0,0,0,0,0,0,0,0,0,0,0,0,0,0,0,0,0,0,0,0],"sum_hessian":[9.2691154E1,1.3297763E1,7.9393394E1,1.0365878E1,2.931885E0,1.3277098E1,6.6116295E1,3.9899688E0,6.3759093E0,1.6519232E0,1.2799617E0,8.541376E0,4.735722E0,6.1647663E0,5.995153E1,2.4312358E0,1.5587329E0,2.0164742E0,4.148292E0,2.6197784E0,1.5285138E0],"tree_param":{"num_deleted":"0","num_feature":"7","num_nodes":"21","size_leaf_vector":"0"}},{"base_weights":[-5.632404E-1,4.9849448E-1,-7.6625276E-1,1.2644942E0,-6.8381935E-1,-9.184634E-1,-5.5354846E-1,-1.1897816E-1,-7.987662E-1,-9.4133455E-1,-4.651562E-1,-2.5306994E-1,-6.6266596E-1,-1.0466226E-1,-6.6741246E-1,3.1924602E-1,-3.6595348E-1,-7.128524E-1,-3.3225864E-1,-4.4688687E-1,6.1569717E-2,-7.4898124E-1,-8.419667E-2,-1.5602284E-2,-6.7166424E-1,-5.2022267E-2,-5.0248957E-1,-6.2559664E-1,5.4847443E-1],"categories":[],"categories_nodes":[],"categories_segments":[],"categories_sizes":[],"default_left":[1,1,1,0,1,1,1,0,0,0,1,1,1,0,0,0,1,1,1,1,0,0,0,1,0,0,0,0,0],"id":35,"left_children":[1,3,5,-1,7,9,11,-1,-1,-1,13,15,17,-1,-1,-1,19,21,23,25,-1,-1,-1,27,-1,-1,-1,-1,-1],"loss_changes":[1.989876E1,1.4576227E1,1.9653053E0,0E0,3.335755E-1,8.140564E-3,9.597578E-1,0E0,0E0,0E0,2.2493756E-1,8.131824E-1,1.712017E-1,0E0,0E0,0E0,3.551438E-1,4.023285E-1,5.395703E-1,1.513195E-1,0E0,0E0,0E0,1.6064209E0,0E0,0E0,0E0,0E0,0E0],"parents":[2147483647,0,0,1,1,2,2,4,4,5,5,6,6,10,10,11,11,12,12,16,16,17,17,18,18,19,19,23,23],"right_children":[2,4,6,-1,8,10,12,-1,-1,-1,14,16,18,-1,-1,-1,20,22,24,26,-1,-1,-1,28,-1,-1,-1,-1,-1],"split_conditions":[-1.3589497E0,7.5002015E-3,3.4670648E-1,6.322471E-2,-8.533795E-1,1.53291E0,-9.950332E-1,-5.948908E-3,-3.9938312E-2,-4.706673E-2,1.3036862E-1,-1.4077277E0,1.188824E0,-5.233113E-3,-3.3370625E-2,1.59623E-2,1.3766785E0,1.5432422E0,5.444635E-1,-9.2553276E-1,3.0784858E-3,-3.7449062E-2,-4.2098337E-3,-1.7190187E-1,-3.3583213E-2,-2.6011134E-3,-2.512448E-2,-3.1279832E-2,2.7423723E-2],"split_indices":[3,4,1,0,6,2,2,0,0,0,6,6,3,0,0,0,3,2,2,6,0,0,0,2,0,0,0,0,0],"split_type":[0,0,0,0,0,0,0,0,0,0,0,0,0,0,0,0,0,0,0,0,0,0,0,0,0,0,0,0,0],"sum_hessian":[8.95461E1,1.4139966E1,7.540613E1,8.538511E0,5.6014547E0,4.2019238E1,3.338689E1,1.2912769E0,4.310178E0,3.8976147E1,3.0430899E0,9.778616E0,2.3608274E1,1.6390975E0,1.4039925E0,1.3098118E0,8.468804E0,1.949034E1,4.1179357E0,7.082702E0,1.386102E0,1.8250105E1,1.2402337E0,2.671483E0,1.4464527E0,1.1131605E0,5.969542E0,1.2311022E0,1.4403807E0],"tree_param":{"num_deleted":"0","num_feature":"7","num_nodes":"29","size_leaf_vector":"0"}},{"base_weights":[-5.5046356E-1,4.8575836E-1,-7.488742E-1,1.238712E0,-6.67195E-1,-9.0210056E-1,-5.376126E-1,-1.1565906E-1,-7.8164864E-1,-9.2413425E-1,-4.2585737E-1,-5.781326E-1,5.795199E-2,4.5808636E-2,-6.729302E-1,-6.4293206E-1,-2.1222676E-1,3.3378363E-1,-2.4508393E-1,-1.5034547E-1,-6.576716E-1,1.9151653E-1,-4.3612477E-1,-6.724393E-1,-1.7345396E-1,-5.9290123E-1,-1.1249744E-1],"categories":[],"categories_nodes":[],"categories_segments":[],"categories_sizes":[],"default_left":[1,1,1,0,1,1,1,0,0,0,1,1,1,0,0,1,1,0,0,0,1,0,1,0,0,0,0],"id":36,"left_children":[1,3,5,-1,7,9,11,-1,-1,-1,13,15,17,-1,-1,19,21,-1,-1,-1,23,-1,25,-1,-1,-1,-1],"loss_changes":[1.8530605E1,1.3680347E1,1.9284134E0,0E0,3.1987596E-1,4.4425964E-2,8.495836E-1,0E0,0E0,0E0,4.6204334E-1,6.164484E-1,3.378402E-1,0E0,0E0,9.340763E-2,6.503235E-1,0E0,0E0,0E0,6.511974E-2,0E0,1.5342289E-1,0E0,0E0,0E0,0E0],"parents":[2147483647,0,0,1,1,2,2,4,4,5,5,6,6,10,10,11,11,12,12,15,15,16,16,20,20,22,22],"right_children":[2,4,6,-1,8,10,12,-1,-1,-1,14,16,18,-1,-1,20,22,-1,-1,-1,24,-1,26,-1,-1,-1,-1],"split_conditions":[-1.3589497E0,7.5002015E-3,3.4670648E-1,6.19356E-2,-8.533795E-1,1.4898825E0,1.6335082E0,-5.782953E-3,-3.9082434E-2,-4.6206713E-2,1.5691972E0,1.188824E0,1.380142E-1,2.2904319E-3,-3.364651E-2,3.932844E-1,-5.9644353E-1,1.6689181E-2,-1.2254196E-2,-7.517274E-3,1.5382953E0,9.575827E-3,7.5002015E-3,-3.3621963E-2,-8.672698E-3,-2.9645061E-2,-5.624872E-3],"split_indices":[3,4,1,0,6,5,1,0,0,0,5,3,3,0,0,1,6,0,0,0,5,0,4,0,0,0,0],"split_type":[0,0,0,0,0,0,0,0,0,0,0,0,0,0,0,0,0,0,0,0,0,0,0,0,0,0,0],"sum_hessian":[8.736118E1,1.3806571E1,7.355462E1,8.307108E0,5.4994636E0,4.073777E1,3.2816845E1,1.2906301E0,4.208833E0,3.803747E1,2.7002978E0,3.0753742E1,2.0631022E0,1.2082752E0,1.4920225E0,2.5483664E1,5.270079E0,1.0269126E0,1.0361897E0,1.0657873E0,2.4417875E1,1.9315838E0,3.3384955E0,2.3318008E1,1.0998669E0,1.6884849E0,1.6500106E0],"tree_param":{"num_deleted":"0","num_feature":"7","num_nodes":"27","size_leaf_vector":"0"}},{"base_weights":[-5.372517E-1,7.048625E-1,-7.704993E-1,-5.9400654E-1,9.5709884E-1,4.2646158E-1,-1.0182142E0,3.5595542E-1,1.1456475E0,6.524026E-1,2.2242376E-1,-2.798633E-1,-1.0917184E0,1.0176382E0,-7.1717656E-1,-2.2185724E-2,8.0015534E-1,-5.757944E-1,4.1058776E-1,-9.30315E-1,8.5797626E-1,7.5661325E-1,1.5678728E-1,-2.4604581E-1,5.486056E-1],"categories":[],"categories_nodes":[],"categories_segments":[],"categories_sizes":[],"default_left":[1,1,1,0,1,1,1,1,0,1,1,1,0,0,0,0,0,0,1,0,0,0,1,0,0],"id":37,"left_children":[1,3,5,-1,7,9,11,13,-1,15,17,19,-1,-1,-1,-1,-1,-1,21,-1,-1,-1,23,-1,-1],"loss_changes":[2.5548885E1,5.210095E0,2.2121395E1,0E0,9.802828E-1,4.655559E-1,2.9994278E0,3.836229E0,0E0,5.9271383E-1,1.509756E0,5.8739986E0,0E0,0E0,0E0,0E0,0E0,0E0,5.3514755E-1,0E0,0E0,0E0,1.0119054E0,0E0,0E0],"parents":[2147483647,0,0,1,1,2,2,4,4,5,5,6,6,7,7,9,9,10,10,11,11,18,18,22,22],"right_children":[2,4,6,-1,8,10,12,14,-1,16,18,20,-1,-1,-1,-1,-1,-1,22,-1,-1,-1,24,-1,-1],"split_conditions":[-1.411538E0,-1.0853904E0,-1.3589497E0,-2.9700328E-2,-2.5567797E-1,-5.8764434E-1,-1.197371E0,-1.5866339E0,5.7282377E-2,-1.427086E0,-1.3712639E-1,9.1885006E-1,-5.4585923E-2,5.088191E-2,-3.585883E-2,-1.1092862E-3,4.0007766E-2,-2.878972E-2,-8.0766094E-1,-4.651575E-2,4.2898815E-2,3.7830662E-2,3.4195346E-1,-1.2302291E-2,2.7430281E-2],"split_indices":[0,1,3,0,1,6,0,0,0,6,6,1,0,0,0,0,0,0,1,0,0,0,0,0,0],"split_type":[0,0,0,0,0,0,0,0,0,0,0,0,0,0,0,0,0,0,0,0,0,0,0,0,0],"sum_hessian":[8.531015E1,1.3167463E1,7.2142685E1,1.9209156E0,1.1246548E1,1.2246394E1,5.989629E1,3.374766E0,7.8717813E0,4.7685204E0,7.477874E0,5.8581867E0,5.4038105E1,2.1195712E0,1.255195E0,1.0094707E0,3.7590497E0,1.0335103E0,6.4443636E0,3.843446E0,2.0147407E0,1.8884971E0,4.5558662E0,2.4298005E0,2.1260657E0],"tree_param":{"num_deleted":"0","num_feature":"7","num_nodes":"25","size_leaf_vector":"0"}},{"base_weights":[-5.284249E-1,5.364935E-1,-7.941693E-1,-1.3354933E-1,1.0792971E0,4.1511577E-1,-1.0464871E0,5.5045605E-1,-7.50835E-1,1.2057697E0,-9.4691074E-1,-1.0765706E0,-5.8052182E-2,-3.9278686E-1,1.0197402E0,-1.1561711E-1,-9.0651876E-1],"categories":[],"categories_nodes":[],"categories_segments":[],"categories_sizes":[],"default_left":[1,1,1,1,0,1,1,1,1,0,0,0,0,0,0,0,0],"id":38,"left_children":[1,3,5,7,-1,9,11,13,15,-1,-1,-1,-1,-1,-1,-1,-1],"loss_changes":[2.4023212E1,6.417685E0,2.0918663E1,4.048532E0,0E0,1.4393352E1,1.5976067E0,2.4637752E0,3.8456917E-1,0E0,0E0,0E0,0E0,0E0,0E0,0E0,0E0],"parents":[2147483647,0,0,1,1,2,2,3,3,5,5,6,6,7,7,8,8],"right_children":[2,4,6,8,-1,10,12,14,16,-1,-1,-1,-1,-1,-1,-1,-1],"split_conditions":[-1.291069E0,-8.570336E-2,-1.3589497E0,-1.5916986E0,5.3964853E-2,7.5002015E-3,1.6335082E0,-1.0853904E0,-1.0125933E0,6.0288485E-2,-4.7345538E-2,-5.3828534E-2,-2.902609E-3,-1.9639343E-2,5.0987013E-2,-5.7808557E-3,-4.532594E-2],"split_indices":[0,1,3,0,0,4,1,1,3,0,0,0,0,0,0,0,0],"split_type":[0,0,0,0,0,0,0,0,0,0,0,0,0,0,0,0,0],"sum_hessian":[8.2383286E1,1.6249155E1,6.613413E1,7.6096644E0,8.639491E0,1.1305412E1,5.482872E1,3.6611075E0,3.948557E0,7.225656E0,4.0797563E0,5.3122734E1,1.7059851E0,1.270487E0,2.3906205E0,1.1202747E0,2.8282824E0],"tree_param":{"num_deleted":"0","num_feature":"7","num_nodes":"17","size_leaf_vector":"0"}},{"base_weights":[-5.212519E-1,5.01571E-1,-7.926116E-1,7.880519E-1,3.666665E-2,-5.938648E-1,-1.0082295E0,3.941901E-1,-3.3070317E-1,-6.121564E-1,-9.780193E-2,-1.23823695E-1,-1.0636172E0,8.439135E-3,5.54515E-1,3.503962E-1,-6.54541E-1,-7.343798E-1,-4.7811478E-1,-5.561594E-1,-2.6010213E-2,-1.7263204E-1,-6.343779E-1,3.3109003E-1,-3.446073E-1],"categories":[],"categories_nodes":[],"categories_segments":[],"categories_sizes":[],"default_left":[1,1,1,0,1,1,1,1,1,1,0,0,0,0,0,0,0,0,1,1,1,0,0,0,0],"id":39,"left_children":[1,3,5,-1,7,9,11,13,15,17,-1,-1,-1,-1,-1,-1,-1,-1,19,21,23,-1,-1,-1,-1],"loss_changes":[2.271924E1,2.2985735E0,2.1416283E0,0E0,1.1432284E0,2.6414585E-1,1.3005791E0,2.6523817E-1,1.1881967E0,2.0998287E-1,0E0,0E0,0E0,0E0,0E0,0E0,0E0,0E0,6.6300917E-1,3.802142E-1,5.5502826E-1,0E0,0E0,0E0,0E0],"parents":[2147483647,0,0,1,1,2,2,4,4,5,5,6,6,7,7,8,8,9,9,18,18,19,19,20,20],"right_children":[2,4,6,-1,8,10,12,14,16,18,-1,-1,-1,-1,-1,-1,-1,-1,20,22,24,-1,-1,-1,-1],"split_conditions":[-1.2632129E0,-1.4860623E0,7.5002015E-3,3.9402597E-2,1.971547E-1,1.6653023E0,-1.191221E0,-8.974577E-1,-1.2808906E0,-4.8000026E-2,-4.890097E-3,-6.1911847E-3,-5.3180862E-2,4.2195673E-4,2.772575E-2,1.751981E-2,-3.272705E-2,-3.671899E-2,1.1848738E0,2.9020363E-1,-9.227079E-1,-8.631602E-3,-3.1718895E-2,1.6554503E-2,-1.7230365E-2],"split_indices":[0,0,4,0,5,0,0,5,2,5,0,0,0,0,0,0,0,0,0,5,2,0,0,0,0],"split_type":[0,0,0,0,0,0,0,0,0,0,0,0,0,0,0,0,0,0,0,0,0,0,0,0,0],"sum_hessian":[7.942318E1,1.6475296E1,6.2947884E1,9.763685E0,6.7116103E0,3.470897E1,2.8238914E1,3.364389E0,3.3472214E0,3.3248936E1,1.4600325E0,1.8549856E0,2.6383928E1,1.2968152E0,2.0675738E0,1.0522035E0,2.295018E0,1.5048491E1,1.8200447E1,1.5324838E1,2.8756084E0,3.139253E0,1.2185585E1,1.3373849E0,1.5382234E0],"tree_param":{"num_deleted":"0","num_feature":"7","num_nodes":"25","size_leaf_vector":"0"}},{"base_weights":[-5.090067E-1,4.7639275E-1,-7.086918E-1,1.1898152E0,-6.443621E-1,-8.447345E-1,-4.6234372E-1,-4.717555E-1,-8.8850343E-1,-5.092187E-1,7.3812276E-2,-6.5322006E-1,5.402564E-2,-9.134551E-1,-3.630091E-1,-6.294118E-2,-5.606509E-1,4.8960347E-2,-5.933158E-1,-4.3872368E-1,3.2898796E-1,-6.3454175E-1,-1.5901077E-1,-2.363165E-1,-6.9701624E-1,-4.1743758E-1,6.74539E-2],"categories":[],"categories_nodes":[],"categories_segments":[],"categories_sizes":[],"default_left":[1,1,1,0,0,1,1,1,1,1,0,0,0,0,1,1,1,0,0,0,0,1,1,0,0,0,0],"id":40,"left_children":[1,3,5,-1,-1,7,9,11,13,15,-1,-1,-1,-1,17,19,21,-1,-1,-1,-1,23,25,-1,-1,-1,-1],"loss_changes":[1.5782198E1,1.1819616E1,1.8101997E0,0E0,0E0,2.5172806E-1,6.8025446E-1,6.5050495E-1,1.3581848E-1,5.0737E-1,0E0,0E0,0E0,0E0,3.3981562E-1,6.70063E-1,5.244808E-1,0E0,0E0,0E0,0E0,2.69763E-1,2.9788324E-1,0E0,0E0,0E0,0E0],"parents":[2147483647,0,0,1,1,2,2,5,5,6,6,7,7,8,8,9,9,14,14,15,15,16,16,21,21,22,22],"right_children":[2,4,6,-1,-1,8,10,12,14,16,-1,-1,-1,-1,18,20,22,-1,-1,-1,-1,24,26,-1,-1,-1,-1],"split_conditions":[-1.3589497E0,7.5002015E-3,5.528311E-1,5.949076E-2,-3.2218106E-2,-1.1947889E0,1.6335082E0,-1.3256634E0,1.4898825E0,6.4668214E-1,3.690614E-3,-3.2661002E-2,2.701282E-3,-4.5672756E-2,1.5691972E0,6.099007E-1,1.2357876E0,2.4480175E-3,-2.9665789E-2,-2.1936184E-2,1.6449397E-2,-1.3187753E0,1.1166325E0,-1.18158255E-2,-3.4850813E-2,-2.087188E-2,3.372695E-3],"split_indices":[3,4,1,0,0,2,1,2,5,1,0,0,0,0,5,2,3,0,0,0,0,2,1,0,0,0,0],"split_type":[0,0,0,0,0,0,0,0,0,0,0,0,0,0,0,0,0,0,0,0,0,0,0,0,0,0,0],"sum_hessian":[7.7490685E1,1.2823582E1,6.46671E1,7.7980638E0,5.0255184E0,4.009571E1,2.4571392E1,5.4480686E0,3.464764E1,2.2642084E1,1.9293085E0,3.870017E0,1.5780518E0,3.2372253E1,2.2753894E0,2.5695803E0,2.0072502E1,1.0982563E0,1.1771332E0,1.2508588E0,1.3187217E0,1.6463745E1,3.6087584E0,2.8811705E0,1.3582574E1,1.291595E0,2.3171635E0],"tree_param":{"num_deleted":"0","num_feature":"7","num_nodes":"27","size_leaf_vector":"0"}},{"base_weights":[-4.969837E-1,5.093853E-1,-7.7520233E-1,-1.6138859E-1,1.0662466E0,4.244243E-1,-1.0385278E0,5.344206E-1,-7.599487E-1,5.166381E-1,3.539108E-2,-2.7813968E-1,-1.0706493E0,-3.8640216E-1,9.98062E-1,-1.1032938E-1,-9.055088E-1,3.434956E-1,7.929187E-1,4.6194237E-1,-4.0663993E-1,-6.4969325E-1,2.823309E-1,4.9309358E-1,-2.1725288E-1,5.7342046E-1,1.9891015E-1],"categories":[],"categories_nodes":[],"categories_segments":[],"categories_sizes":[],"default_left":[1,1,1,1,0,1,1,1,1,1,1,1,0,0,0,0,0,1,0,0,0,0,0,1,0,0,0],"id":41,"left_children":[1,3,5,7,-1,9,11,13,15,17,19,21,-1,-1,-1,-1,-1,23,-1,-1,-1,-1,-1,25,-1,-1,-1],"loss_changes":[2.1871824E1,6.6029615E0,1.9548897E1,4.0204067E0,0E0,3.9777517E-1,9.2080307E-1,2.349603E0,3.802569E-1,1.7260075E-1,8.092695E-1,8.858664E-1,0E0,0E0,0E0,0E0,0E0,7.348174E-1,0E0,0E0,0E0,0E0,0E0,3.275013E-2,0E0,0E0,0E0],"parents":[2147483647,0,0,1,1,2,2,3,3,5,5,6,6,7,7,8,8,9,9,10,10,11,11,17,17,23,23],"right_children":[2,4,6,8,-1,10,12,14,16,18,20,22,-1,-1,-1,-1,-1,24,-1,-1,-1,-1,-1,26,-1,-1,-1],"split_conditions":[-1.2632129E0,-8.570336E-2,-1.3589497E0,-1.5916986E0,5.331233E-2,8.13876E-1,-1.197371E0,-1.0853904E0,-1.0125933E0,3.9884594E-1,-2.2356282E-1,8.0588126E-1,-5.3532463E-2,-1.9320108E-2,4.9903102E-2,-5.516469E-3,-4.5275442E-2,-1.22896165E-1,3.9645936E-2,2.3097118E-2,-2.0331997E-2,-3.248466E-2,1.4116545E-2,-1.4646177E0,-1.0862644E-2,2.8671024E-2,9.945507E-3],"split_indices":[0,1,3,0,0,1,0,1,3,1,2,1,0,0,0,0,0,1,0,0,0,0,0,3,0,0,0],"split_type":[0,0,0,0,0,0,0,0,0,0,0,0,0,0,0,0,0,0,0,0,0,0,0,0,0,0,0],"sum_hessian":[7.5705956E1,1.6216599E1,5.9489357E1,7.67807E0,8.538528E0,1.0597727E1,4.8891632E1,3.6001515E0,4.0779185E0,8.301896E0,2.295831E0,2.3731344E0,4.6518497E1,1.2614399E0,2.3387117E0,1.068277E0,3.0096414E0,6.4825974E0,1.8192985E0,1.1454494E0,1.1503814E0,1.3313489E0,1.0417855E0,5.2126136E0,1.2699838E0,3.34898E0,1.8636336E0],"tree_param":{"num_deleted":"0","num_feature":"7","num_nodes":"27","size_leaf_vector":"0"}},{"base_weights":[-4.8839143E-1,4.5162588E-1,-6.844517E-1,1.1605437E0,-6.375663E-1,-8.215102E-1,-4.398278E-1,-1.1327359E-1,-7.422465E-1,-4.4644448E-1,-8.6646324E-1,-4.8672622E-1,7.986754E-2,-6.279602E-1,6.4708E-2,-8.9367056E-1,-3.8878313E-1,-5.8707535E-2,-5.364541E-1,-7.1765706E-2,-5.7754534E-1,-4.190108E-1,3.127143E-1,-6.090758E-1,-1.4739852E-1,-2.233495E-1,-6.705268E-1,3.3792573E-1,-4.9357986E-1],"categories":[],"categories_nodes":[],"categories_segments":[],"categories_sizes":[],"default_left":[1,1,1,0,1,1,1,0,0,1,1,1,0,0,0,0,1,1,1,0,0,0,0,1,1,0,0,0,0],"id":42,"left_children":[1,3,5,-1,7,9,11,-1,-1,13,15,17,-1,-1,-1,-1,19,21,23,-1,-1,-1,-1,25,27,-1,-1,-1,-1],"loss_changes":[1.3982145E1,1.1091134E1,1.7101345E0,0E0,2.4141979E-1,2.613697E-1,6.3206387E-1,0E0,0E0,6.1380124E-1,8.491516E-2,4.4665098E-1,0E0,0E0,0E0,0E0,1.7175078E-1,5.9422153E-1,4.7539616E-1,0E0,0E0,0E0,0E0,2.422328E-1,9.170919E-1,0E0,0E0,0E0,0E0],"parents":[2147483647,0,0,1,1,2,2,4,4,5,5,6,6,9,9,10,10,11,11,16,16,17,17,18,18,23,23,24,24],"right_children":[2,4,6,-1,8,10,12,-1,-1,14,16,18,-1,-1,-1,-1,20,22,24,-1,-1,-1,-1,26,28,-1,-1,-1,-1],"split_conditions":[-1.3589497E0,7.5002015E-3,5.528311E-1,5.8027185E-2,-8.533795E-1,-1.1947889E0,1.6335082E0,-5.6636794E-3,-3.7112325E-2,-1.3256634E0,1.53291E0,6.4668214E-1,3.993377E-3,-3.139801E-2,3.2354002E-3,-4.4683527E-2,1.3036862E-1,6.099007E-1,1.2357876E0,-3.5882853E-3,-2.8877268E-2,-2.0950539E-2,1.5635716E-2,-1.3187753E0,-5.9644353E-1,-1.1167475E-2,-3.3526342E-2,1.6896287E-2,-2.4678994E-2],"split_indices":[3,4,1,0,6,2,1,0,0,2,2,1,0,0,0,0,6,2,3,0,0,0,0,2,6,0,0,0,0],"split_type":[0,0,0,0,0,0,0,0,0,0,0,0,0,0,0,0,0,0,0,0,0,0,0,0,0,0,0,0,0],"sum_hessian":[7.318898E1,1.2405739E1,6.0783237E1,7.475006E0,4.9307327E0,3.7445126E1,2.3338112E1,1.1671467E0,3.763586E0,5.1775556E0,3.226757E1,2.1464544E1,1.8735672E0,3.6521275E0,1.5254282E0,2.9704813E1,2.5627584E0,2.4611814E0,1.9003363E1,1.4715497E0,1.0912088E0,1.184253E0,1.2769285E0,1.5537571E1,3.4657915E0,2.7720547E0,1.2765516E1,1.4528441E0,2.0129476E0],"tree_param":{"num_deleted":"0","num_feature":"7","num_nodes":"29","size_leaf_vector":"0"}},{"base_weights":[-4.7696742E-1,4.409243E-1,-6.679234E-1,1.1408865E0,-6.222857E-1,-8.055379E-1,-4.2581218E-1,-1.1025613E-1,-7.264122E-1,-8.969378E-1,-6.272988E-1,-4.718928E-1,7.722207E-2,-8.002903E-4,-6.857414E-1,-5.765153E-2,-5.203321E-1,-1.4401552E-1,-7.6018304E-1,-2.553496E-1,1.520181E-1,-5.9123E-1,-1.4286214E-1,-4.151319E-1,-7.914428E-1,3.283555E-1,-4.8178607E-1],"categories":[],"categories_nodes":[],"categories_segments":[],"categories_sizes":[],"default_left":[1,1,1,0,1,1,1,0,0,0,1,1,0,0,1,1,1,0,0,0,0,1,1,0,0,0,0],"id":43,"left_children":[1,3,5,-1,7,9,11,-1,-1,-1,13,15,-1,-1,17,19,21,-1,-1,-1,-1,23,25,-1,-1,-1,-1],"loss_changes":[1.3004969E1,1.04520035E1,1.6702652E0,0E0,2.3147917E-1,4.6735764E-2,5.9322834E-1,0E0,0E0,0E0,5.8549833E-1,4.143529E-1,0E0,0E0,4.8087215E-1,1.8153533E-1,4.4279575E-1,0E0,0E0,0E0,0E0,2.4500704E-1,8.6633503E-1,0E0,0E0,0E0,0E0],"parents":[2147483647,0,0,1,1,2,2,4,4,5,5,6,6,10,10,11,11,14,14,15,15,16,16,21,21,22,22],"right_children":[2,4,6,-1,8,10,12,-1,-1,-1,14,16,-1,-1,18,20,22,-1,-1,-1,-1,24,26,-1,-1,-1,-1],"split_conditions":[-1.3589497E0,7.5002015E-3,5.528311E-1,5.7044327E-2,-8.533795E-1,-3.7698907E-1,1.6335082E0,-5.5128066E-3,-3.6320608E-2,-4.484689E-2,-3.08165E-1,6.4668214E-1,3.8611037E-3,-4.0014518E-5,-1.3144565E0,6.0358024E-1,1.2357876E0,-7.200776E-3,-3.800915E-2,-1.2767481E-2,7.600905E-3,5.087333E-1,-5.9644353E-1,-2.0756595E-2,-3.9572142E-2,1.6417775E-2,-2.4089305E-2],"split_indices":[3,4,1,0,6,1,1,0,0,0,1,1,0,0,6,1,3,0,0,0,0,6,6,0,0,0,0],"split_type":[0,0,0,0,0,0,0,0,0,0,0,0,0,0,0,0,0,0,0,0,0,0,0,0,0,0,0],"sum_hessian":[7.151649E1,1.2090508E1,5.942598E1,7.2466393E0,4.843869E0,3.6405933E1,2.3020046E1,1.1665183E0,3.6773508E0,2.1399952E1,1.50059805E1,2.1144962E1,1.8750839E0,1.3668796E0,1.3639101E1,2.4430194E0,1.8701942E1,2.0023344E0,1.1636766E1,1.1452725E0,1.2977469E0,1.5267959E1,3.4339838E0,9.758384E0,5.509575E0,1.4496574E0,1.9843265E0],"tree_param":{"num_deleted":"0","num_feature":"7","num_nodes":"27","size_leaf_vector":"0"}},{"base_weights":[-4.65703E-1,-5.878071E-1,-2.8831935E-1,-4.5107383E-1,-7.1616507E-1,-3.328506E-2,-3.7996498E-1,-7.049498E-1,-2.5525078E-1,-8.016011E-1,-2.0880932E-1,-5.212602E-1,1.1285333E-1,-1.3317311E-1,-4.998943E-1,-8.300806E-1,-3.1954813E-1,7.3588113E-3,-4.2529553E-1,-2.5664744E-1,-8.49734E-1,1.6028681E-1,-3.8717827E-1,-1.850729E-1,3.2844126E-1,8.31781E-2,-4.5707715E-1,-3.2769132E-1,-6.814746E-1,-9.087218E-1,-2.9336444E-1,-1.8324316E-2,-4.199339E-1,-2.4002853E-1,2.6333293E-1,6.421162E-2,-5.3100085E-1,-8.915227E-1,-2.7400225E-1,-4.648816E-2,-5.4602003E-1,-4.064005E-1,8.660922E-2,-1.1741051E-1,4.8018214E-1,2.5678784E-1,-2.7464828E-1,-6.723956E-1,2.5321968E-2,-5.344213E-1,5.788156E-2,-3.3565035E-1,1.1523254E-2,-1.8601371E-2,5.091928E-1,-9.858616E-2,-5.8636403E-1,5.669674E-1,1.5374835E-1,2.7838089E-2,4.6962968E-1,-1.2566382E-2,-6.616584E-1,3.059713E-1,-2.2312172E-1],"categories":[],"categories_nodes":[],"categories_segments":[],"categories_sizes":[],"default_left":[1,1,1,1,1,1,1,1,1,1,1,0,1,1,1,1,1,1,1,0,1,0,1,1,1,1,1,1,0,0,0,0,0,1,1,0,1,0,0,0,0,0,0,0,1,1,0,0,0,1,1,0,0,0,0,0,0,0,0,0,0,0,0,0,0],"id":44,"left_children":[1,3,5,7,9,11,13,15,17,19,21,-1,23,25,27,29,31,33,35,-1,37,-1,39,41,43,45,47,49,-1,-1,-1,-1,-1,51,53,-1,55,-1,-1,-1,-1,-1,-1,-1,57,59,-1,-1,-1,61,63,-1,-1,-1,-1,-1,-1,-1,-1,-1,-1,-1,-1,-1,-1],"loss_changes":[1.3664284E0,3.9720535E-1,7.0897007E-1,9.422331E-1,6.76383E-1,7.1900964E-1,6.028235E-1,1.8139362E-1,6.4217806E-1,2.0967674E-1,3.3578458E-1,0E0,5.7116365E-1,6.518565E-1,2.4124837E-1,2.0947456E-3,1.10111564E-1,4.8162362E-1,4.8443043E-1,0E0,1.058197E-1,0E0,1.421526E-1,2.7425575E-1,3.926559E-1,4.4932744E-1,3.973742E-1,7.92294E-1,0E0,0E0,0E0,0E0,0E0,9.72746E-2,2.6762146E-1,0E0,1.1612654E-1,0E0,0E0,0E0,0E0,0E0,0E0,0E0,2.3454249E-2,2.1218091E-1,0E0,0E0,0E0,4.1103792E-1,3.635832E-1,0E0,0E0,0E0,0E0,0E0,0E0,0E0,0E0,0E0,0E0,0E0,0E0,0E0,0E0],"parents":[2147483647,0,0,1,1,2,2,3,3,4,4,5,5,6,6,7,7,8,8,9,9,10,10,12,12,13,13,14,14,15,15,16,16,17,17,18,18,20,20,22,22,23,23,24,24,25,25,26,26,27,27,33,33,34,34,36,36,44,44,45,45,49,49,50,50],"right_children":[2,4,6,8,10,12,14,16,18,20,22,-1,24,26,28,30,32,34,36,-1,38,-1,40,42,44,46,48,50,-1,-1,-1,-1,-1,52,54,-1,56,-1,-1,-1,-1,-1,-1,-1,58,60,-1,-1,-1,62,64,-1,-1,-1,-1,-1,-1,-1,-1,-1,-1,-1,-1,-1,-1],"split_conditions":[4.3708152E-1,7.5002015E-3,-9.950332E-1,-9.057592E-2,1.1885035E0,-1.1185777E0,8.2395625E-1,-4.4928914E-1,-8.622336E-1,-1.3979888E0,1.3331542E0,-2.606301E-2,9.748131E-1,8.677398E-1,5.1346695E-1,1.054185E0,-7.849453E-1,-1.3536656E-1,1.9406453E-1,-1.2832372E-2,2.3686606E-1,8.014341E-3,-4.002812E-1,-2.2737077E-2,-1.4840903E0,4.0316707E-1,1.497761E0,-1.202409E-1,-3.4073733E-2,-4.543609E-2,-1.4668222E-2,-9.1621577E-4,-2.0996695E-2,6.8222606E-1,1.2083321E0,3.2105811E-3,-1.2616614E0,-4.4576135E-2,-1.3700113E-2,-2.324408E-3,-2.7301002E-2,-2.0320026E-2,4.3304614E-3,-5.8705257E-3,1.265056E0,2.3947844E-1,-1.3732414E-2,-3.361978E-2,1.2660985E-3,-1.0100049E0,-5.506702E-1,-1.6782518E-2,5.761627E-4,-9.3006855E-4,2.5459642E-2,-4.929308E-3,-2.9318202E-2,2.8348371E-2,7.6874173E-3,1.3919044E-3,2.3481485E-2,-6.283191E-4,-3.308292E-2,1.5298565E-2,-1.1156086E-2],"split_indices":[1,4,2,5,2,5,1,1,1,2,2,0,1,6,2,2,2,6,5,0,1,0,5,6,2,5,6,2,0,0,0,0,0,2,5,0,6,0,0,0,0,0,0,0,1,6,0,0,0,6,5,0,0,0,0,0,0,0,0,0,0,0,0,0,0],"split_type":[0,0,0,0,0,0,0,0,0,0,0,0,0,0,0,0,0,0,0,0,0,0,0,0,0,0,0,0,0,0,0,0,0,0,0,0,0,0,0,0,0,0,0,0,0,0,0,0,0,0,0,0,0,0,0,0,0,0,0,0,0,0,0,0,0],"sum_hessian":[6.991208E1,4.003782E1,2.987426E1,2.1572214E1,1.8465603E1,8.257692E0,2.1616568E1,8.261548E0,1.3310667E1,1.5307879E1,3.1577244E0,1.3115066E0,6.946186E0,7.7594714E0,1.3857097E1,5.3656435E0,2.8959045E0,5.6074667E0,7.7032003E0,1.7562239E0,1.3551655E1,1.0618433E0,2.095881E0,2.9756315E0,3.9705544E0,5.097683E0,2.6617882E0,8.551698E0,5.305399E0,4.0753913E0,1.290252E0,1.0194418E0,1.8764628E0,2.8832402E0,2.7242265E0,1.4377434E0,6.265457E0,1.2123205E1,1.4284502E0,1.0774955E0,1.0183855E0,1.3665198E0,1.6091118E0,1.0656518E0,2.9049027E0,3.622494E0,1.4751892E0,1.5680382E0,1.09375E0,5.3156157E0,3.236082E0,1.8468732E0,1.0363669E0,1.6995953E0,1.024631E0,1.026748E0,5.238709E0,1.7127105E0,1.1921921E0,2.28999E0,1.332504E0,1.2573671E0,4.0582485E0,1.6715051E0,1.564577E0],"tree_param":{"num_deleted":"0","num_feature":"7","num_nodes":"65","size_leaf_vector":"0"}},{"base_weights":[-4.5353028E-1,5.5692726E-1,-7.5534683E-1,-8.644081E-2,1.0615855E0,-5.5609477E-1,-9.7322494E-1,5.831324E-1,-7.1949446E-1,-2.876702E-1,-6.2763506E-1,-7.9819694E-2,-1.0375514E0,-3.311242E-1,1.0090225E0,-2.1295351E-1,-8.4046304E-1,-6.8567395E-1,5.099753E-2,-1.9086662E-1,-6.4140356E-1,3.3880174E-1,-1.8850638E-1,-4.4197547E-1,-7.1783864E-1,-3.615806E-1,3.652499E-2,-1.3999492E-1,-5.696711E-1,-7.892208E-1,-3.594633E-1],"categories":[],"categories_nodes":[],"categories_segments":[],"categories_sizes":[],"default_left":[1,1,1,1,0,1,1,1,1,1,1,0,0,0,0,0,0,0,1,0,1,0,1,1,1,0,0,0,0,0,0],"id":45,"left_children":[1,3,5,7,-1,9,11,13,15,17,19,-1,-1,-1,-1,-1,-1,-1,21,-1,23,-1,25,27,29,-1,-1,-1,-1,-1,-1],"loss_changes":[2.1727615E1,5.4958253E0,1.8126698E0,3.9128473E0,0E0,4.081049E-1,1.3290195E0,2.1086655E0,1.08024836E-1,1.1533101E0,1.8040657E-2,0E0,0E0,0E0,0E0,0E0,0E0,0E0,4.3700936E-1,0E0,2.1434784E-2,0E0,1.5330377E-1,2.5799978E-1,8.624172E-2,0E0,0E0,0E0,0E0,0E0,0E0],"parents":[2147483647,0,0,1,1,2,2,3,3,5,5,6,6,7,7,8,8,9,9,10,10,18,18,20,20,22,22,23,23,24,24],"right_children":[2,4,6,8,-1,10,12,14,16,18,20,-1,-1,-1,-1,-1,-1,-1,22,-1,24,-1,26,28,30,-1,-1,-1,-1,-1,-1],"split_conditions":[-1.2632129E0,-8.570336E-2,7.5002015E-3,-1.5916986E0,5.3079277E-2,-8.622336E-1,-1.191221E0,-1.0853904E0,-7.1083283E-1,9.0714976E-2,-1.1203144E0,-3.990985E-3,-5.187757E-2,-1.6556209E-2,5.0451126E-2,-1.0647676E-2,-4.2023152E-2,-3.4283698E-2,6.565623E-1,-9.543331E-3,-6.158017E-1,1.6940087E-2,1.2083321E0,-1.7718422E-1,1.1501441E0,-1.8079031E-2,1.8262494E-3,-6.999746E-3,-2.8483555E-2,-3.9461043E-2,-1.7973166E-2],"split_indices":[0,1,4,0,0,1,0,1,6,5,0,0,0,0,0,0,0,0,5,0,6,0,5,0,0,0,0,0,0,0,0],"split_type":[0,0,0,0,0,0,0,0,0,0,0,0,0,0,0,0,0,0,0,0,0,0,0,0,0,0,0,0,0,0,0],"sum_hessian":[6.886506E1,1.5644219E1,5.3220844E1,7.2412987E0,8.402921E0,2.9654123E1,2.356672E1,3.557467E0,3.683832E0,7.296861E0,2.2357262E1,1.7333766E0,2.1833344E1,1.2012535E0,2.3562136E0,1.2422919E0,2.44154E0,2.8835177E0,4.4133434E0,1.1374443E0,2.1219816E1,1.8162346E0,2.597109E0,7.758733E0,1.3461084E1,1.1250327E0,1.4720764E0,2.9288263E0,4.8299065E0,1.0222684E1,3.2384002E0],"tree_param":{"num_deleted":"0","num_feature":"7","num_nodes":"31","size_leaf_vector":"0"}},{"base_weights":[-4.4496208E-1,-5.6435645E-1,-2.7245438E-1,-4.2955923E-1,-6.946562E-1,-2.8069066E-2,-3.6105266E-1,-6.8426216E-1,-2.3706858E-1,-7.798592E-1,-1.9867566E-1,-3.119755E-1,2.0964867E-1,-1.1364102E-1,-4.7416472E-1,-8.081938E-1,-3.063191E-1,9.947194E-3,-4.0069267E-1,-2.4345122E-1,-8.2831573E-1,1.5664029E-1,-3.7272352E-1,-5.2661028E-2,-5.8744645E-1,-1.3967617E-1,3.6313757E-1,1.1685814E-1,-4.4248766E-1,-5.143696E-1,-4.9181625E-2,-8.9187485E-1,-2.7082673E-1,-1.1075476E-2,-4.0790066E-1,-2.3169962E-1,2.5918347E-1,7.049323E-2,-5.056857E-1,-8.704512E-1,-2.5896367E-1,-3.5028645E-1,2.626197E-1,8.57522E-2,4.9621266E-1,3.3846536E-1,-3.5108638E-1,-6.550171E-1,2.4151187E-2,-6.9559103E-1,-2.791411E-1,-3.2224426E-1,8.076634E-3,-1.9360356E-2,5.0097317E-1,-9.298044E-2,-5.592022E-1,1.0841492E-1,4.9990514E-1,5.3616624E-2,-5.2010196E-1],"categories":[],"categories_nodes":[],"categories_segments":[],"categories_sizes":[],"default_left":[1,1,1,1,1,1,1,1,1,1,1,1,1,1,1,1,1,1,1,0,1,0,0,1,0,0,1,1,1,1,0,0,0,0,0,1,1,0,1,0,0,0,0,0,0,1,0,0,0,0,1,0,0,0,0,0,0,0,0,0,0],"id":46,"left_children":[1,3,5,7,9,11,13,15,17,19,21,23,25,27,29,31,33,35,37,-1,39,-1,-1,41,-1,-1,43,45,47,49,-1,-1,-1,-1,-1,51,53,-1,55,-1,-1,-1,-1,-1,-1,57,-1,-1,-1,-1,59,-1,-1,-1,-1,-1,-1,-1,-1,-1,-1],"loss_changes":[1.2481451E0,3.9172745E-1,6.345277E-1,9.131117E-1,6.2088585E-1,6.732357E-1,5.5527997E-1,1.6980553E-1,5.707331E-1,1.9669342E-1,3.078105E-1,2.9096672E-1,3.4561622E-1,6.690583E-1,2.2455263E-1,3.275776E-2,1.0977146E-1,4.553294E-1,4.5413184E-1,0E0,1.017952E-1,0E0,0E0,4.1288143E-1,0E0,0E0,1.0874951E-1,6.974122E-1,3.693959E-1,3.7079716E-1,0E0,0E0,0E0,0E0,0E0,8.6411074E-2,2.5908023E-1,0E0,1.0349536E-1,0E0,0E0,0E0,0E0,0E0,0E0,1.05332464E-1,0E0,0E0,0E0,0E0,6.242395E-1,0E0,0E0,0E0,0E0,0E0,0E0,0E0,0E0,0E0,0E0],"parents":[2147483647,0,0,1,1,2,2,3,3,4,4,5,5,6,6,7,7,8,8,9,9,10,10,11,11,12,12,13,13,14,14,15,15,16,16,17,17,18,18,20,20,23,23,26,26,27,27,28,28,29,29,35,35,36,36,38,38,45,45,50,50],"right_children":[2,4,6,8,10,12,14,16,18,20,22,24,26,28,30,32,34,36,38,-1,40,-1,-1,42,-1,-1,44,46,48,50,-1,-1,-1,-1,-1,52,54,-1,56,-1,-1,-1,-1,-1,-1,58,-1,-1,-1,-1,60,-1,-1,-1,-1,-1,-1,-1,-1,-1,-1],"split_conditions":[4.3708152E-1,7.5002015E-3,-9.950332E-1,-9.057592E-2,1.1885035E0,9.748131E-1,7.864159E-1,-4.4928914E-1,-8.622336E-1,-1.3979888E0,1.3331542E0,7.930202E-1,-1.4840903E0,8.677398E-1,1.373142E0,1.054185E0,-7.849453E-1,-1.3536656E-1,1.9406453E-1,-1.2172561E-2,2.3686606E-1,7.832015E-3,-1.8636176E-2,-2.2737077E-2,-2.9372323E-2,-6.9838087E-3,8.45346E-2,4.0316707E-1,1.497761E0,1.2852166E0,-2.4590814E-3,-4.4593744E-2,-1.3541336E-2,-5.5377383E-4,-2.0395033E-2,6.8222606E-1,1.2083321E0,3.5246615E-3,-1.2616614E0,-4.3522563E-2,-1.2948184E-2,-1.7514324E-2,1.3130985E-2,4.28761E-3,2.4810633E-2,2.3947844E-1,-1.7554319E-2,-3.2750856E-2,1.2075594E-3,-3.4779552E-2,1.4739614E0,-1.6112214E-2,4.038317E-4,-9.680178E-4,2.5048658E-2,-4.649022E-3,-2.796011E-2,5.420746E-3,2.4995258E-2,2.6808314E-3,-2.6005099E-2],"split_indices":[1,4,2,5,2,1,1,1,1,2,2,1,2,6,5,2,2,6,5,0,1,0,0,6,0,0,5,5,6,1,0,0,0,0,0,2,5,0,6,0,0,0,0,0,0,6,0,0,0,0,1,0,0,0,0,0,0,0,0,0,0],"split_type":[0,0,0,0,0,0,0,0,0,0,0,0,0,0,0,0,0,0,0,0,0,0,0,0,0,0,0,0,0,0,0,0,0,0,0,0,0,0,0,0,0,0,0,0,0,0,0,0,0,0,0,0,0,0,0,0,0,0,0,0,0],"sum_hessian":[6.706542E1,3.8291794E1,2.877363E1,2.0932985E1,1.7358809E1,8.006284E0,2.0767345E1,7.9107394E0,1.3022244E1,1.4325514E1,3.0332954E0,3.5063133E0,4.4999704E0,7.1445813E0,1.3622765E1,5.0999956E0,2.8107438E0,5.5630984E0,7.4591465E0,1.6859857E0,1.2639528E1,1.0301917E0,2.003104E0,2.4196985E0,1.086615E0,1.4011315E0,3.0988388E0,4.5793853E0,2.5651958E0,1.2253237E1,1.3695282E0,3.8419917E0,1.2580041E0,1.0034062E0,1.8073378E0,2.8602788E0,2.7028193E0,1.4191043E0,6.0400424E0,1.1276178E1,1.3633497E0,1.1875856E0,1.2321128E0,1.5377989E0,1.5610399E0,3.2954416E0,1.2839438E0,1.4851133E0,1.0800827E0,5.815701E0,6.437536E0,1.8265841E0,1.0336947E0,1.6834265E0,1.0193928E0,1.007544E0,5.0324984E0,2.0482507E0,1.2471908E0,3.0302985E0,3.4072373E0],"tree_param":{"num_deleted":"0","num_feature":"7","num_nodes":"61","size_leaf_vector":"0"}},{"base_weights":[-4.330215E-1,5.57299E-1,-7.3427814E-1,7.58188E-1,2.7385446E-5,4.3564475E-1,-1.0130204E0,8.091423E-1,2.7164704E-1,-3.1206524E-1,4.5180097E-1,1.1230245E0,-8.6699384E-1,-2.251484E-1,-1.0503124E0,3.853989E-2,-4.6900323E-1,-3.8431165E-1,5.2838657E-2],"categories":[],"categories_nodes":[],"categories_segments":[],"categories_sizes":[],"default_left":[1,1,1,1,1,1,1,0,0,1,0,0,0,1,0,0,0,0,0],"id":47,"left_children":[1,3,5,7,9,11,13,-1,-1,15,-1,-1,-1,17,-1,-1,-1,-1,-1],"loss_changes":[2.0430252E1,1.8159447E0,1.7361938E1,7.578802E-2,8.8800716E-1,1.0539267E1,1.0035286E0,0E0,0E0,2.2303489E-1,0E0,0E0,0E0,1.6101484E-1,0E0,0E0,0E0,0E0,0E0],"parents":[2147483647,0,0,1,1,2,2,3,3,4,4,5,5,6,6,9,9,13,13],"right_children":[2,4,6,8,10,12,14,-1,-1,16,-1,-1,-1,18,-1,-1,-1,-1,-1],"split_conditions":[-1.2632129E0,-1.4415648E0,-1.3589497E0,-1.4860623E0,-1.3236282E0,7.5002015E-3,-1.197371E0,4.0457115E-2,1.3582352E-2,-7.0917594E-1,2.2590049E-2,5.6151222E-2,-4.3349694E-2,-1.2183537E0,-5.2515622E-2,1.9269945E-3,-2.3450162E-2,-1.9215582E-2,2.6419328E-3],"split_indices":[0,0,3,0,0,4,0,0,0,2,0,0,0,0,0,0,0,0,0],"split_type":[0,0,0,0,0,0,0,0,0,0,0,0,0,0,0,0,0,0,0],"sum_hessian":[6.610799E1,1.5221258E1,5.088673E1,1.0923094E1,4.298165E0,9.68297E0,4.1203762E1,9.287396E0,1.6356976E0,2.7249613E0,1.5732037E0,6.428596E0,3.2543738E0,2.1801858E0,3.9023575E1,1.0758654E0,1.6490958E0,1.1431739E0,1.037012E0],"tree_param":{"num_deleted":"0","num_feature":"7","num_nodes":"19","size_leaf_vector":"0"}},{"base_weights":[-4.260151E-1,4.6994874E-1,-6.207315E-1,1.1083822E0,-5.6394404E-1,-3.439595E-1,-6.942965E-1,-8.686986E-2,-6.645155E-1,-3.9236006E-1,1.2246114E-1,-7.243702E-1,-2.7331072E-1,-1.9741999E-1,-6.44462E-1,-7.407529E-1,-1.9209237E-1,-3.8497834E-3,-4.7511467E-1,-3.348724E-1,3.3601707E-1,-4.7634718E-1,-8.1160784E-1,3.2758461E-3,-4.2193592E-1,-8.206399E-1,-6.798287E-2,-5.030474E-1,-9.2736846E-1],"categories":[],"categories_nodes":[],"categories_segments":[],"categories_sizes":[],"default_left":[1,1,1,0,1,1,1,0,0,1,0,1,1,1,0,1,0,0,0,1,0,1,1,0,0,0,0,0,0],"id":48,